digraph Tree {
node [shape=box, style="rounded", color="black", fontname="helvetica"] ;
edge [fontname="helvetica"] ;
0 [label="Emb std <= 0.3\ngini = 0.3\nsamples = 30723\nvalue = [39619, 9087]"] ;
1 [label="Emb magnitude <= 12.5\ngini = 0.4\nsamples = 15480\nvalue = [16683, 7786]"] ;
0 -> 1 [labeldistance=2.5, labelangle=45, headlabel="True"] ;
2 [label="Mass <= 28416.9\ngini = 0.5\nsamples = 10264\nvalue = [10404, 5726]"] ;
1 -> 2 ;
3 [label="Mass <= 19331.7\ngini = 0.3\nsamples = 3311\nvalue = [4277, 897]"] ;
2 -> 3 ;
4 [label="Emb PCA <= 0.4\ngini = 0.2\nsamples = 1719\nvalue = [2434, 249]"] ;
3 -> 4 ;
5 [label="Emb PCA <= 0.3\ngini = 0.3\nsamples = 133\nvalue = [34, 162]"] ;
4 -> 5 ;
6 [label="Emb std <= 0.2\ngini = 0.1\nsamples = 94\nvalue = [8, 127]"] ;
5 -> 6 ;
7 [label="gini = 0.0\nsamples = 60\nvalue = [0, 85]"] ;
6 -> 7 ;
8 [label="Emb median <= -0.0\ngini = 0.3\nsamples = 34\nvalue = [8, 42]"] ;
6 -> 8 ;
9 [label="gini = 0.0\nsamples = 19\nvalue = [0, 30]"] ;
8 -> 9 ;
10 [label="gini = 0.5\nsamples = 15\nvalue = [8, 12]"] ;
8 -> 10 ;
11 [label="Emb std <= 0.2\ngini = 0.5\nsamples = 39\nvalue = [26, 35]"] ;
5 -> 11 ;
12 [label="Emb PCA <= 0.4\ngini = 0.1\nsamples = 20\nvalue = [1, 32]"] ;
11 -> 12 ;
13 [label="gini = 0.0\nsamples = 12\nvalue = [0, 19]"] ;
12 -> 13 ;
14 [label="gini = 0.1\nsamples = 8\nvalue = [1, 13]"] ;
12 -> 14 ;
15 [label="Mass <= 13361.2\ngini = 0.2\nsamples = 19\nvalue = [25, 3]"] ;
11 -> 15 ;
16 [label="gini = 0.0\nsamples = 11\nvalue = [15, 0]"] ;
15 -> 16 ;
17 [label="gini = 0.4\nsamples = 8\nvalue = [10, 3]"] ;
15 -> 17 ;
18 [label="Emb std <= 0.2\ngini = 0.1\nsamples = 1586\nvalue = [2400, 87]"] ;
4 -> 18 ;
19 [label="Mass <= 15138.3\ngini = 0.1\nsamples = 690\nvalue = [982, 76]"] ;
18 -> 19 ;
20 [label="Emb std <= 0.2\ngini = 0.1\nsamples = 404\nvalue = [592, 26]"] ;
19 -> 20 ;
21 [label="Emb magnitude <= 11.5\ngini = 0.1\nsamples = 373\nvalue = [554, 19]"] ;
20 -> 21 ;
22 [label="Emb std <= 0.2\ngini = 0.1\nsamples = 228\nvalue = [333, 16]"] ;
21 -> 22 ;
23 [label="gini = 0.1\nsamples = 218\nvalue = [323, 13]"] ;
22 -> 23 ;
24 [label="gini = 0.4\nsamples = 10\nvalue = [10, 3]"] ;
22 -> 24 ;
25 [label="Mass <= 14276.3\ngini = 0.0\nsamples = 145\nvalue = [221, 3]"] ;
21 -> 25 ;
26 [label="gini = 0.0\nsamples = 122\nvalue = [189, 1]"] ;
25 -> 26 ;
27 [label="gini = 0.1\nsamples = 23\nvalue = [32, 2]"] ;
25 -> 27 ;
28 [label="Emb PCA <= 1.3\ngini = 0.3\nsamples = 31\nvalue = [38, 7]"] ;
20 -> 28 ;
29 [label="gini = 0.5\nsamples = 8\nvalue = [5, 7]"] ;
28 -> 29 ;
30 [label="gini = 0.0\nsamples = 23\nvalue = [33, 0]"] ;
28 -> 30 ;
31 [label="Emb magnitude <= 11.6\ngini = 0.2\nsamples = 286\nvalue = [390, 50]"] ;
19 -> 31 ;
32 [label="Emb std <= 0.2\ngini = 0.2\nsamples = 197\nvalue = [271, 43]"] ;
31 -> 32 ;
33 [label="Emb median <= -0.0\ngini = 0.2\nsamples = 162\nvalue = [234, 28]"] ;
32 -> 33 ;
34 [label="gini = 0.3\nsamples = 55\nvalue = [69, 15]"] ;
33 -> 34 ;
35 [label="gini = 0.1\nsamples = 107\nvalue = [165, 13]"] ;
33 -> 35 ;
36 [label="Emb std <= 0.2\ngini = 0.4\nsamples = 35\nvalue = [37, 15]"] ;
32 -> 36 ;
37 [label="gini = 0.5\nsamples = 11\nvalue = [10, 8]"] ;
36 -> 37 ;
38 [label="gini = 0.3\nsamples = 24\nvalue = [27, 7]"] ;
36 -> 38 ;
39 [label="Emb PCA <= 1.1\ngini = 0.1\nsamples = 89\nvalue = [119, 7]"] ;
31 -> 39 ;
40 [label="gini = 0.5\nsamples = 8\nvalue = [6, 5]"] ;
39 -> 40 ;
41 [label="Emb PCA <= 1.4\ngini = 0.0\nsamples = 81\nvalue = [113, 2]"] ;
39 -> 41 ;
42 [label="gini = 0.1\nsamples = 12\nvalue = [16, 1]"] ;
41 -> 42 ;
43 [label="gini = 0.0\nsamples = 69\nvalue = [97, 1]"] ;
41 -> 43 ;
44 [label="Emb PCA <= 0.6\ngini = 0.0\nsamples = 896\nvalue = [1418, 11]"] ;
18 -> 44 ;
45 [label="Mass <= 17077.1\ngini = 0.2\nsamples = 45\nvalue = [64, 6]"] ;
44 -> 45 ;
46 [label="Emb magnitude <= 12.3\ngini = 0.0\nsamples = 36\nvalue = [56, 1]"] ;
45 -> 46 ;
47 [label="gini = 0.2\nsamples = 8\nvalue = [11, 1]"] ;
46 -> 47 ;
48 [label="gini = 0.0\nsamples = 28\nvalue = [45, 0]"] ;
46 -> 48 ;
49 [label="gini = 0.5\nsamples = 9\nvalue = [8, 5]"] ;
45 -> 49 ;
50 [label="Emb median <= -0.0\ngini = 0.0\nsamples = 851\nvalue = [1354, 5]"] ;
44 -> 50 ;
51 [label="gini = 0.0\nsamples = 682\nvalue = [1076, 0]"] ;
50 -> 51 ;
52 [label="Emb magnitude <= 12.0\ngini = 0.0\nsamples = 169\nvalue = [278, 5]"] ;
50 -> 52 ;
53 [label="Emb std <= 0.2\ngini = 0.2\nsamples = 35\nvalue = [49, 5]"] ;
52 -> 53 ;
54 [label="gini = 0.0\nsamples = 14\nvalue = [20, 0]"] ;
53 -> 54 ;
55 [label="gini = 0.3\nsamples = 21\nvalue = [29, 5]"] ;
53 -> 55 ;
56 [label="gini = 0.0\nsamples = 134\nvalue = [229, 0]"] ;
52 -> 56 ;
57 [label="Emb PCA <= 0.5\ngini = 0.4\nsamples = 1592\nvalue = [1843, 648]"] ;
3 -> 57 ;
58 [label="Emb std <= 0.2\ngini = 0.2\nsamples = 279\nvalue = [39, 382]"] ;
57 -> 58 ;
59 [label="Emb median <= -0.0\ngini = 0.1\nsamples = 186\nvalue = [11, 269]"] ;
58 -> 59 ;
60 [label="gini = 0.5\nsamples = 8\nvalue = [5, 7]"] ;
59 -> 60 ;
61 [label="Emb PCA <= 0.4\ngini = 0.0\nsamples = 178\nvalue = [6, 262]"] ;
59 -> 61 ;
62 [label="gini = 0.0\nsamples = 135\nvalue = [0, 204]"] ;
61 -> 62 ;
63 [label="Mass <= 24323.4\ngini = 0.2\nsamples = 43\nvalue = [6, 58]"] ;
61 -> 63 ;
64 [label="Mass <= 21613.9\ngini = 0.2\nsamples = 29\nvalue = [6, 36]"] ;
63 -> 64 ;
65 [label="gini = 0.0\nsamples = 10\nvalue = [0, 15]"] ;
64 -> 65 ;
66 [label="gini = 0.3\nsamples = 19\nvalue = [6, 21]"] ;
64 -> 66 ;
67 [label="gini = 0.0\nsamples = 14\nvalue = [0, 22]"] ;
63 -> 67 ;
68 [label="Emb PCA <= 0.2\ngini = 0.3\nsamples = 93\nvalue = [28, 113]"] ;
58 -> 68 ;
69 [label="gini = 0.0\nsamples = 70\nvalue = [0, 105]"] ;
68 -> 69 ;
70 [label="Emb PCA <= 0.3\ngini = 0.3\nsamples = 23\nvalue = [28, 8]"] ;
68 -> 70 ;
71 [label="gini = 0.5\nsamples = 9\nvalue = [6, 7]"] ;
70 -> 71 ;
72 [label="gini = 0.1\nsamples = 14\nvalue = [22, 1]"] ;
70 -> 72 ;
73 [label="Emb magnitude <= 11.8\ngini = 0.2\nsamples = 1313\nvalue = [1804, 266]"] ;
57 -> 73 ;
74 [label="Emb PCA <= 1.4\ngini = 0.3\nsamples = 689\nvalue = [854, 232]"] ;
73 -> 74 ;
75 [label="Emb PCA <= 1.2\ngini = 0.3\nsamples = 108\nvalue = [31, 141]"] ;
74 -> 75 ;
76 [label="Emb magnitude <= 11.8\ngini = 0.1\nsamples = 77\nvalue = [7, 113]"] ;
75 -> 76 ;
77 [label="Emb PCA <= 1.1\ngini = 0.0\nsamples = 59\nvalue = [1, 89]"] ;
76 -> 77 ;
78 [label="gini = 0.0\nsamples = 50\nvalue = [0, 79]"] ;
77 -> 78 ;
79 [label="gini = 0.2\nsamples = 9\nvalue = [1, 10]"] ;
77 -> 79 ;
80 [label="Emb std <= 0.2\ngini = 0.3\nsamples = 18\nvalue = [6, 24]"] ;
76 -> 80 ;
81 [label="gini = 0.5\nsamples = 10\nvalue = [5, 9]"] ;
80 -> 81 ;
82 [label="gini = 0.1\nsamples = 8\nvalue = [1, 15]"] ;
80 -> 82 ;
83 [label="Emb magnitude <= 11.3\ngini = 0.5\nsamples = 31\nvalue = [24, 28]"] ;
75 -> 83 ;
84 [label="gini = 0.0\nsamples = 10\nvalue = [0, 16]"] ;
83 -> 84 ;
85 [label="Mass <= 25153.2\ngini = 0.4\nsamples = 21\nvalue = [24, 12]"] ;
83 -> 85 ;
86 [label="gini = 0.3\nsamples = 9\nvalue = [12, 3]"] ;
85 -> 86 ;
87 [label="gini = 0.5\nsamples = 12\nvalue = [12, 9]"] ;
85 -> 87 ;
88 [label="Emb std <= 0.2\ngini = 0.2\nsamples = 581\nvalue = [823, 91]"] ;
74 -> 88 ;
89 [label="Emb magnitude <= 10.4\ngini = 0.3\nsamples = 371\nvalue = [488, 87]"] ;
88 -> 89 ;
90 [label="Mass <= 21644.1\ngini = 0.4\nsamples = 48\nvalue = [54, 22]"] ;
89 -> 90 ;
91 [label="gini = 0.0\nsamples = 12\nvalue = [22, 0]"] ;
90 -> 91 ;
92 [label="gini = 0.5\nsamples = 36\nvalue = [32, 22]"] ;
90 -> 92 ;
93 [label="Emb median <= -0.0\ngini = 0.2\nsamples = 323\nvalue = [434, 65]"] ;
89 -> 93 ;
94 [label="gini = 0.3\nsamples = 99\nvalue = [132, 32]"] ;
93 -> 94 ;
95 [label="gini = 0.2\nsamples = 224\nvalue = [302, 33]"] ;
93 -> 95 ;
96 [label="Emb std <= 0.2\ngini = 0.0\nsamples = 210\nvalue = [335, 4]"] ;
88 -> 96 ;
97 [label="Emb std <= 0.2\ngini = 0.1\nsamples = 82\nvalue = [128, 4]"] ;
96 -> 97 ;
98 [label="gini = 0.0\nsamples = 70\nvalue = [112, 1]"] ;
97 -> 98 ;
99 [label="gini = 0.3\nsamples = 12\nvalue = [16, 3]"] ;
97 -> 99 ;
100 [label="gini = 0.0\nsamples = 128\nvalue = [207, 0]"] ;
96 -> 100 ;
101 [label="Emb std <= 0.2\ngini = 0.1\nsamples = 624\nvalue = [950, 34]"] ;
73 -> 101 ;
102 [label="Emb magnitude <= 12.0\ngini = 0.2\nsamples = 149\nvalue = [212, 19]"] ;
101 -> 102 ;
103 [label="Emb PCA <= 0.9\ngini = 0.1\nsamples = 124\nvalue = [179, 13]"] ;
102 -> 103 ;
104 [label="gini = 0.2\nsamples = 11\nvalue = [2, 12]"] ;
103 -> 104 ;
105 [label="Emb magnitude <= 11.9\ngini = 0.0\nsamples = 113\nvalue = [177, 1]"] ;
103 -> 105 ;
106 [label="gini = 0.1\nsamples = 20\nvalue = [33, 1]"] ;
105 -> 106 ;
107 [label="gini = 0.0\nsamples = 93\nvalue = [144, 0]"] ;
105 -> 107 ;
108 [label="Emb PCA <= 1.2\ngini = 0.3\nsamples = 25\nvalue = [33, 6]"] ;
102 -> 108 ;
109 [label="gini = 0.5\nsamples = 8\nvalue = [4, 6]"] ;
108 -> 109 ;
110 [label="gini = 0.0\nsamples = 17\nvalue = [29, 0]"] ;
108 -> 110 ;
111 [label="Emb PCA <= 0.8\ngini = 0.0\nsamples = 475\nvalue = [738, 15]"] ;
101 -> 111 ;
112 [label="Emb median <= -0.0\ngini = 0.3\nsamples = 58\nvalue = [79, 15]"] ;
111 -> 112 ;
113 [label="Emb std <= 0.2\ngini = 0.2\nsamples = 50\nvalue = [73, 10]"] ;
112 -> 113 ;
114 [label="gini = 0.5\nsamples = 14\nvalue = [13, 10]"] ;
113 -> 114 ;
115 [label="gini = 0.0\nsamples = 36\nvalue = [60, 0]"] ;
113 -> 115 ;
116 [label="gini = 0.5\nsamples = 8\nvalue = [6, 5]"] ;
112 -> 116 ;
117 [label="gini = 0.0\nsamples = 417\nvalue = [659, 0]"] ;
111 -> 117 ;
118 [label="Emb PCA <= 0.7\ngini = 0.5\nsamples = 6953\nvalue = [6127, 4829]"] ;
2 -> 118 ;
119 [label="Emb magnitude <= 12.4\ngini = 0.1\nsamples = 2118\nvalue = [253, 3066]"] ;
118 -> 119 ;
120 [label="Emb magnitude <= 12.2\ngini = 0.1\nsamples = 1716\nvalue = [94, 2583]"] ;
119 -> 120 ;
121 [label="Emb std <= 0.2\ngini = 0.0\nsamples = 1295\nvalue = [23, 1999]"] ;
120 -> 121 ;
122 [label="Emb magnitude <= 12.0\ngini = 0.0\nsamples = 840\nvalue = [1, 1307]"] ;
121 -> 122 ;
123 [label="gini = 0.0\nsamples = 698\nvalue = [0, 1092]"] ;
122 -> 123 ;
124 [label="Emb median <= -0.0\ngini = 0.0\nsamples = 142\nvalue = [1, 215]"] ;
122 -> 124 ;
125 [label="gini = 0.0\nsamples = 119\nvalue = [0, 181]"] ;
124 -> 125 ;
126 [label="Emb median <= -0.0\ngini = 0.1\nsamples = 23\nvalue = [1, 34]"] ;
124 -> 126 ;
127 [label="gini = 0.2\nsamples = 8\nvalue = [1, 8]"] ;
126 -> 127 ;
128 [label="gini = 0.0\nsamples = 15\nvalue = [0, 26]"] ;
126 -> 128 ;
129 [label="Emb PCA <= 0.6\ngini = 0.1\nsamples = 455\nvalue = [22, 692]"] ;
121 -> 129 ;
130 [label="Emb PCA <= 0.5\ngini = 0.0\nsamples = 429\nvalue = [1, 667]"] ;
129 -> 130 ;
131 [label="gini = 0.0\nsamples = 421\nvalue = [0, 654]"] ;
130 -> 131 ;
132 [label="gini = 0.1\nsamples = 8\nvalue = [1, 13]"] ;
130 -> 132 ;
133 [label="Emb median <= -0.0\ngini = 0.5\nsamples = 26\nvalue = [21, 25]"] ;
129 -> 133 ;
134 [label="Emb std <= 0.2\ngini = 0.5\nsamples = 16\nvalue = [19, 13]"] ;
133 -> 134 ;
135 [label="gini = 0.5\nsamples = 8\nvalue = [8, 10]"] ;
134 -> 135 ;
136 [label="gini = 0.3\nsamples = 8\nvalue = [11, 3]"] ;
134 -> 136 ;
137 [label="gini = 0.2\nsamples = 10\nvalue = [2, 12]"] ;
133 -> 137 ;
138 [label="Emb std <= 0.2\ngini = 0.2\nsamples = 421\nvalue = [71, 584]"] ;
120 -> 138 ;
139 [label="Emb median <= -0.0\ngini = 0.4\nsamples = 17\nvalue = [6, 20]"] ;
138 -> 139 ;
140 [label="gini = 0.0\nsamples = 9\nvalue = [0, 14]"] ;
139 -> 140 ;
141 [label="gini = 0.5\nsamples = 8\nvalue = [6, 6]"] ;
139 -> 141 ;
142 [label="Emb median <= -0.0\ngini = 0.2\nsamples = 404\nvalue = [65, 564]"] ;
138 -> 142 ;
143 [label="gini = 0.5\nsamples = 11\nvalue = [8, 11]"] ;
142 -> 143 ;
144 [label="Emb PCA <= 0.5\ngini = 0.2\nsamples = 393\nvalue = [57, 553]"] ;
142 -> 144 ;
145 [label="Emb magnitude <= 12.3\ngini = 0.0\nsamples = 355\nvalue = [5, 548]"] ;
144 -> 145 ;
146 [label="gini = 0.0\nsamples = 319\nvalue = [3, 493]"] ;
145 -> 146 ;
147 [label="gini = 0.1\nsamples = 36\nvalue = [2, 55]"] ;
145 -> 147 ;
148 [label="Mass <= 50336.2\ngini = 0.2\nsamples = 38\nvalue = [52, 5]"] ;
144 -> 148 ;
149 [label="gini = 0.0\nsamples = 20\nvalue = [31, 0]"] ;
148 -> 149 ;
150 [label="gini = 0.3\nsamples = 18\nvalue = [21, 5]"] ;
148 -> 150 ;
151 [label="Mass <= 114608.8\ngini = 0.4\nsamples = 402\nvalue = [159, 483]"] ;
119 -> 151 ;
152 [label="Mass <= 46459.3\ngini = 0.4\nsamples = 394\nvalue = [150, 479]"] ;
151 -> 152 ;
153 [label="Emb magnitude <= 12.4\ngini = 0.4\nsamples = 181\nvalue = [84, 200]"] ;
152 -> 153 ;
154 [label="Emb PCA <= 0.4\ngini = 0.3\nsamples = 72\nvalue = [23, 98]"] ;
153 -> 154 ;
155 [label="Emb PCA <= -0.0\ngini = 0.1\nsamples = 56\nvalue = [4, 97]"] ;
154 -> 155 ;
156 [label="gini = 0.0\nsamples = 46\nvalue = [0, 83]"] ;
155 -> 156 ;
157 [label="gini = 0.3\nsamples = 10\nvalue = [4, 14]"] ;
155 -> 157 ;
158 [label="Emb std <= 0.2\ngini = 0.1\nsamples = 16\nvalue = [19, 1]"] ;
154 -> 158 ;
159 [label="gini = 0.2\nsamples = 8\nvalue = [9, 1]"] ;
158 -> 159 ;
160 [label="gini = 0.0\nsamples = 8\nvalue = [10, 0]"] ;
158 -> 160 ;
161 [label="Emb std <= 0.2\ngini = 0.5\nsamples = 109\nvalue = [61, 102]"] ;
153 -> 161 ;
162 [label="Mass <= 43999.0\ngini = 0.5\nsamples = 59\nvalue = [44, 44]"] ;
161 -> 162 ;
163 [label="gini = 0.5\nsamples = 50\nvalue = [32, 42]"] ;
162 -> 163 ;
164 [label="gini = 0.2\nsamples = 9\nvalue = [12, 2]"] ;
162 -> 164 ;
165 [label="Emb PCA <= 0.2\ngini = 0.4\nsamples = 50\nvalue = [17, 58]"] ;
161 -> 165 ;
166 [label="gini = 0.0\nsamples = 37\nvalue = [0, 57]"] ;
165 -> 166 ;
167 [label="gini = 0.1\nsamples = 13\nvalue = [17, 1]"] ;
165 -> 167 ;
168 [label="Emb PCA <= 0.3\ngini = 0.3\nsamples = 213\nvalue = [66, 279]"] ;
152 -> 168 ;
169 [label="Emb PCA <= 0.1\ngini = 0.0\nsamples = 171\nvalue = [1, 274]"] ;
168 -> 169 ;
170 [label="gini = 0.0\nsamples = 163\nvalue = [0, 260]"] ;
169 -> 170 ;
171 [label="gini = 0.1\nsamples = 8\nvalue = [1, 14]"] ;
169 -> 171 ;
172 [label="Emb median <= -0.0\ngini = 0.1\nsamples = 42\nvalue = [65, 5]"] ;
168 -> 172 ;
173 [label="Emb std <= 0.2\ngini = 0.0\nsamples = 34\nvalue = [54, 1]"] ;
172 -> 173 ;
174 [label="gini = 0.0\nsamples = 26\nvalue = [44, 0]"] ;
173 -> 174 ;
175 [label="gini = 0.2\nsamples = 8\nvalue = [10, 1]"] ;
173 -> 175 ;
176 [label="gini = 0.4\nsamples = 8\nvalue = [11, 4]"] ;
172 -> 176 ;
177 [label="gini = 0.4\nsamples = 8\nvalue = [9, 4]"] ;
151 -> 177 ;
178 [label="Emb PCA <= 1.4\ngini = 0.4\nsamples = 4835\nvalue = [5874, 1763]"] ;
118 -> 178 ;
179 [label="Emb std <= 0.2\ngini = 0.5\nsamples = 1503\nvalue = [1504, 890]"] ;
178 -> 179 ;
180 [label="Emb std <= 0.2\ngini = 0.2\nsamples = 526\nvalue = [79, 760]"] ;
179 -> 180 ;
181 [label="Emb PCA <= 1.3\ngini = 0.0\nsamples = 317\nvalue = [5, 511]"] ;
180 -> 181 ;
182 [label="Emb std <= 0.2\ngini = 0.0\nsamples = 298\nvalue = [3, 480]"] ;
181 -> 182 ;
183 [label="Emb median <= -0.0\ngini = 0.0\nsamples = 282\nvalue = [1, 456]"] ;
182 -> 183 ;
184 [label="gini = 0.0\nsamples = 201\nvalue = [0, 331]"] ;
183 -> 184 ;
185 [label="gini = 0.0\nsamples = 81\nvalue = [1, 125]"] ;
183 -> 185 ;
186 [label="Mass <= 43809.5\ngini = 0.1\nsamples = 16\nvalue = [2, 24]"] ;
182 -> 186 ;
187 [label="gini = 0.0\nsamples = 8\nvalue = [0, 13]"] ;
186 -> 187 ;
188 [label="gini = 0.3\nsamples = 8\nvalue = [2, 11]"] ;
186 -> 188 ;
189 [label="Mass <= 42352.4\ngini = 0.1\nsamples = 19\nvalue = [2, 31]"] ;
181 -> 189 ;
190 [label="gini = 0.2\nsamples = 8\nvalue = [2, 13]"] ;
189 -> 190 ;
191 [label="gini = 0.0\nsamples = 11\nvalue = [0, 18]"] ;
189 -> 191 ;
192 [label="Emb PCA <= 1.2\ngini = 0.4\nsamples = 209\nvalue = [74, 249]"] ;
180 -> 192 ;
193 [label="Emb std <= 0.2\ngini = 0.1\nsamples = 156\nvalue = [17, 219]"] ;
192 -> 193 ;
194 [label="Emb PCA <= 1.1\ngini = 0.1\nsamples = 146\nvalue = [12, 211]"] ;
193 -> 194 ;
195 [label="gini = 0.1\nsamples = 131\nvalue = [6, 197]"] ;
194 -> 195 ;
196 [label="gini = 0.4\nsamples = 15\nvalue = [6, 14]"] ;
194 -> 196 ;
197 [label="gini = 0.5\nsamples = 10\nvalue = [5, 8]"] ;
193 -> 197 ;
198 [label="Emb magnitude <= 11.6\ngini = 0.5\nsamples = 53\nvalue = [57, 30]"] ;
192 -> 198 ;
199 [label="gini = 0.2\nsamples = 8\nvalue = [14, 2]"] ;
198 -> 199 ;
200 [label="Emb std <= 0.2\ngini = 0.5\nsamples = 45\nvalue = [43, 28]"] ;
198 -> 200 ;
201 [label="gini = 0.4\nsamples = 11\nvalue = [6, 13]"] ;
200 -> 201 ;
202 [label="gini = 0.4\nsamples = 34\nvalue = [37, 15]"] ;
200 -> 202 ;
203 [label="Emb std <= 0.2\ngini = 0.2\nsamples = 977\nvalue = [1425, 130]"] ;
179 -> 203 ;
204 [label="Emb PCA <= 0.9\ngini = 0.4\nsamples = 201\nvalue = [236, 105]"] ;
203 -> 204 ;
205 [label="Emb std <= 0.2\ngini = 0.4\nsamples = 40\nvalue = [17, 50]"] ;
204 -> 205 ;
206 [label="Emb PCA <= 0.8\ngini = 0.2\nsamples = 28\nvalue = [6, 37]"] ;
205 -> 206 ;
207 [label="gini = 0.0\nsamples = 15\nvalue = [0, 27]"] ;
206 -> 207 ;
208 [label="gini = 0.5\nsamples = 13\nvalue = [6, 10]"] ;
206 -> 208 ;
209 [label="gini = 0.5\nsamples = 12\nvalue = [11, 13]"] ;
205 -> 209 ;
210 [label="Emb magnitude <= 11.9\ngini = 0.3\nsamples = 161\nvalue = [219, 55]"] ;
204 -> 210 ;
211 [label="Emb PCA <= 1.2\ngini = 0.5\nsamples = 47\nvalue = [51, 32]"] ;
210 -> 211 ;
212 [label="gini = 0.5\nsamples = 33\nvalue = [31, 31]"] ;
211 -> 212 ;
213 [label="gini = 0.1\nsamples = 14\nvalue = [20, 1]"] ;
211 -> 213 ;
214 [label="Mass <= 49916.3\ngini = 0.2\nsamples = 114\nvalue = [168, 23]"] ;
210 -> 214 ;
215 [label="gini = 0.1\nsamples = 60\nvalue = [90, 5]"] ;
214 -> 215 ;
216 [label="gini = 0.3\nsamples = 54\nvalue = [78, 18]"] ;
214 -> 216 ;
217 [label="Emb std <= 0.2\ngini = 0.0\nsamples = 776\nvalue = [1189, 25]"] ;
203 -> 217 ;
218 [label="Emb magnitude <= 12.1\ngini = 0.1\nsamples = 119\nvalue = [185, 16]"] ;
217 -> 218 ;
219 [label="Emb PCA <= 1.0\ngini = 0.1\nsamples = 101\nvalue = [163, 11]"] ;
218 -> 219 ;
220 [label="gini = 0.3\nsamples = 31\nvalue = [41, 10]"] ;
219 -> 220 ;
221 [label="gini = 0.0\nsamples = 70\nvalue = [122, 1]"] ;
219 -> 221 ;
222 [label="Emb PCA <= 1.1\ngini = 0.3\nsamples = 18\nvalue = [22, 5]"] ;
218 -> 222 ;
223 [label="gini = 0.4\nsamples = 8\nvalue = [9, 4]"] ;
222 -> 223 ;
224 [label="gini = 0.1\nsamples = 10\nvalue = [13, 1]"] ;
222 -> 224 ;
225 [label="Emb std <= 0.2\ngini = 0.0\nsamples = 657\nvalue = [1004, 9]"] ;
217 -> 225 ;
226 [label="Emb median <= -0.0\ngini = 0.0\nsamples = 524\nvalue = [795, 5]"] ;
225 -> 226 ;
227 [label="gini = 0.0\nsamples = 177\nvalue = [254, 4]"] ;
226 -> 227 ;
228 [label="gini = 0.0\nsamples = 347\nvalue = [541, 1]"] ;
226 -> 228 ;
229 [label="Emb median <= -0.0\ngini = 0.0\nsamples = 133\nvalue = [209, 4]"] ;
225 -> 229 ;
230 [label="gini = 0.0\nsamples = 125\nvalue = [200, 1]"] ;
229 -> 230 ;
231 [label="gini = 0.4\nsamples = 8\nvalue = [9, 3]"] ;
229 -> 231 ;
232 [label="Emb magnitude <= 11.3\ngini = 0.3\nsamples = 3332\nvalue = [4370, 873]"] ;
178 -> 232 ;
233 [label="Mass <= 115336.0\ngini = 0.4\nsamples = 1516\nvalue = [1621, 765]"] ;
232 -> 233 ;
234 [label="Mass <= 48110.9\ngini = 0.4\nsamples = 1461\nvalue = [1528, 764]"] ;
233 -> 234 ;
235 [label="Emb PCA <= 1.8\ngini = 0.4\nsamples = 709\nvalue = [806, 310]"] ;
234 -> 235 ;
236 [label="Emb PCA <= 1.6\ngini = 0.2\nsamples = 78\nvalue = [15, 107]"] ;
235 -> 236 ;
237 [label="gini = 0.1\nsamples = 52\nvalue = [4, 79]"] ;
236 -> 237 ;
238 [label="gini = 0.4\nsamples = 26\nvalue = [11, 28]"] ;
236 -> 238 ;
239 [label="Emb std <= 0.2\ngini = 0.3\nsamples = 631\nvalue = [791, 203]"] ;
235 -> 239 ;
240 [label="gini = 0.5\nsamples = 214\nvalue = [208, 109]"] ;
239 -> 240 ;
241 [label="gini = 0.2\nsamples = 417\nvalue = [583, 94]"] ;
239 -> 241 ;
242 [label="Emb PCA <= 1.8\ngini = 0.5\nsamples = 752\nvalue = [722, 454]"] ;
234 -> 242 ;
243 [label="Emb PCA <= 1.7\ngini = 0.2\nsamples = 126\nvalue = [26, 162]"] ;
242 -> 243 ;
244 [label="gini = 0.0\nsamples = 70\nvalue = [0, 100]"] ;
243 -> 244 ;
245 [label="gini = 0.4\nsamples = 56\nvalue = [26, 62]"] ;
243 -> 245 ;
246 [label="Emb PCA <= 2.8\ngini = 0.4\nsamples = 626\nvalue = [696, 292]"] ;
242 -> 246 ;
247 [label="gini = 0.5\nsamples = 260\nvalue = [231, 191]"] ;
246 -> 247 ;
248 [label="gini = 0.3\nsamples = 366\nvalue = [465, 101]"] ;
246 -> 248 ;
249 [label="Emb median <= -0.0\ngini = 0.0\nsamples = 55\nvalue = [93, 1]"] ;
233 -> 249 ;
250 [label="gini = 0.0\nsamples = 47\nvalue = [79, 0]"] ;
249 -> 250 ;
251 [label="gini = 0.1\nsamples = 8\nvalue = [14, 1]"] ;
249 -> 251 ;
252 [label="Emb std <= 0.2\ngini = 0.1\nsamples = 1816\nvalue = [2749, 108]"] ;
232 -> 252 ;
253 [label="Mass <= 36100.0\ngini = 0.2\nsamples = 522\nvalue = [740, 85]"] ;
252 -> 253 ;
254 [label="Emb PCA <= 1.5\ngini = 0.1\nsamples = 104\nvalue = [168, 5]"] ;
253 -> 254 ;
255 [label="gini = 0.4\nsamples = 8\nvalue = [9, 3]"] ;
254 -> 255 ;
256 [label="Emb magnitude <= 11.4\ngini = 0.0\nsamples = 96\nvalue = [159, 2]"] ;
254 -> 256 ;
257 [label="gini = 0.1\nsamples = 39\nvalue = [61, 2]"] ;
256 -> 257 ;
258 [label="gini = 0.0\nsamples = 57\nvalue = [98, 0]"] ;
256 -> 258 ;
259 [label="Emb std <= 0.2\ngini = 0.2\nsamples = 418\nvalue = [572, 80]"] ;
253 -> 259 ;
260 [label="Emb std <= 0.2\ngini = 0.2\nsamples = 410\nvalue = [564, 74]"] ;
259 -> 260 ;
261 [label="gini = 0.3\nsamples = 161\nvalue = [218, 42]"] ;
260 -> 261 ;
262 [label="gini = 0.2\nsamples = 249\nvalue = [346, 32]"] ;
260 -> 262 ;
263 [label="gini = 0.5\nsamples = 8\nvalue = [8, 6]"] ;
259 -> 263 ;
264 [label="Emb magnitude <= 11.7\ngini = 0.0\nsamples = 1294\nvalue = [2009, 23]"] ;
252 -> 264 ;
265 [label="Emb std <= 0.2\ngini = 0.1\nsamples = 195\nvalue = [285, 10]"] ;
264 -> 265 ;
266 [label="Mass <= 107107.5\ngini = 0.0\nsamples = 181\nvalue = [266, 7]"] ;
265 -> 266 ;
267 [label="gini = 0.0\nsamples = 160\nvalue = [237, 3]"] ;
266 -> 267 ;
268 [label="gini = 0.2\nsamples = 21\nvalue = [29, 4]"] ;
266 -> 268 ;
269 [label="gini = 0.2\nsamples = 14\nvalue = [19, 3]"] ;
265 -> 269 ;
270 [label="Emb PCA <= 1.4\ngini = 0.0\nsamples = 1099\nvalue = [1724, 13]"] ;
264 -> 270 ;
271 [label="Emb PCA <= 1.4\ngini = 0.0\nsamples = 139\nvalue = [210, 5]"] ;
270 -> 271 ;
272 [label="gini = 0.0\nsamples = 131\nvalue = [200, 3]"] ;
271 -> 272 ;
273 [label="gini = 0.3\nsamples = 8\nvalue = [10, 2]"] ;
271 -> 273 ;
274 [label="Emb std <= 0.2\ngini = 0.0\nsamples = 960\nvalue = [1514, 8]"] ;
270 -> 274 ;
275 [label="gini = 0.0\nsamples = 264\nvalue = [410, 6]"] ;
274 -> 275 ;
276 [label="gini = 0.0\nsamples = 696\nvalue = [1104, 2]"] ;
274 -> 276 ;
277 [label="Emb PCA <= -0.2\ngini = 0.4\nsamples = 5216\nvalue = [6279, 2060]"] ;
1 -> 277 ;
278 [label="Emb PCA <= -0.4\ngini = 0.1\nsamples = 1236\nvalue = [72, 1901]"] ;
277 -> 278 ;
279 [label="Emb std <= 0.3\ngini = 0.0\nsamples = 1112\nvalue = [18, 1756]"] ;
278 -> 279 ;
280 [label="Emb median <= -0.0\ngini = 0.0\nsamples = 1089\nvalue = [12, 1720]"] ;
279 -> 280 ;
281 [label="Emb PCA <= -0.7\ngini = 0.2\nsamples = 17\nvalue = [3, 22]"] ;
280 -> 281 ;
282 [label="gini = 0.0\nsamples = 9\nvalue = [0, 15]"] ;
281 -> 282 ;
283 [label="gini = 0.4\nsamples = 8\nvalue = [3, 7]"] ;
281 -> 283 ;
284 [label="Emb PCA <= -0.5\ngini = 0.0\nsamples = 1072\nvalue = [9, 1698]"] ;
280 -> 284 ;
285 [label="Mass <= 12973.0\ngini = 0.0\nsamples = 1009\nvalue = [1, 1591]"] ;
284 -> 285 ;
286 [label="Emb std <= 0.3\ngini = 0.0\nsamples = 30\nvalue = [1, 42]"] ;
285 -> 286 ;
287 [label="gini = 0.0\nsamples = 21\nvalue = [0, 32]"] ;
286 -> 287 ;
288 [label="gini = 0.2\nsamples = 9\nvalue = [1, 10]"] ;
286 -> 288 ;
289 [label="gini = 0.0\nsamples = 979\nvalue = [0, 1549]"] ;
285 -> 289 ;
290 [label="Emb PCA <= -0.4\ngini = 0.1\nsamples = 63\nvalue = [8, 107]"] ;
284 -> 290 ;
291 [label="gini = 0.5\nsamples = 8\nvalue = [6, 7]"] ;
290 -> 291 ;
292 [label="Emb std <= 0.3\ngini = 0.0\nsamples = 55\nvalue = [2, 100]"] ;
290 -> 292 ;
293 [label="gini = 0.0\nsamples = 46\nvalue = [0, 89]"] ;
292 -> 293 ;
294 [label="gini = 0.3\nsamples = 9\nvalue = [2, 11]"] ;
292 -> 294 ;
295 [label="Emb PCA <= -0.8\ngini = 0.2\nsamples = 23\nvalue = [6, 36]"] ;
279 -> 295 ;
296 [label="gini = 0.0\nsamples = 15\nvalue = [0, 29]"] ;
295 -> 296 ;
297 [label="gini = 0.5\nsamples = 8\nvalue = [6, 7]"] ;
295 -> 297 ;
298 [label="Emb magnitude <= 12.8\ngini = 0.4\nsamples = 124\nvalue = [54, 145]"] ;
278 -> 298 ;
299 [label="Emb median <= -0.0\ngini = 0.0\nsamples = 80\nvalue = [1, 124]"] ;
298 -> 299 ;
300 [label="gini = 0.2\nsamples = 8\nvalue = [1, 9]"] ;
299 -> 300 ;
301 [label="gini = 0.0\nsamples = 72\nvalue = [0, 115]"] ;
299 -> 301 ;
302 [label="Emb std <= 0.3\ngini = 0.4\nsamples = 44\nvalue = [53, 21]"] ;
298 -> 302 ;
303 [label="Emb magnitude <= 12.9\ngini = 0.5\nsamples = 18\nvalue = [18, 15]"] ;
302 -> 303 ;
304 [label="gini = 0.4\nsamples = 8\nvalue = [10, 5]"] ;
303 -> 304 ;
305 [label="gini = 0.5\nsamples = 10\nvalue = [8, 10]"] ;
303 -> 305 ;
306 [label="Emb median <= -0.0\ngini = 0.2\nsamples = 26\nvalue = [35, 6]"] ;
302 -> 306 ;
307 [label="Emb PCA <= -0.3\ngini = 0.1\nsamples = 18\nvalue = [25, 1]"] ;
306 -> 307 ;
308 [label="gini = 0.0\nsamples = 10\nvalue = [17, 0]"] ;
307 -> 308 ;
309 [label="gini = 0.2\nsamples = 8\nvalue = [8, 1]"] ;
307 -> 309 ;
310 [label="gini = 0.4\nsamples = 8\nvalue = [10, 5]"] ;
306 -> 310 ;
311 [label="Emb PCA <= -0.1\ngini = 0.0\nsamples = 3980\nvalue = [6207, 159]"] ;
277 -> 311 ;
312 [label="Emb std <= 0.3\ngini = 0.5\nsamples = 160\nvalue = [161, 88]"] ;
311 -> 312 ;
313 [label="Emb magnitude <= 12.7\ngini = 0.3\nsamples = 55\nvalue = [17, 71]"] ;
312 -> 313 ;
314 [label="Emb std <= 0.2\ngini = 0.2\nsamples = 45\nvalue = [7, 60]"] ;
313 -> 314 ;
315 [label="gini = 0.0\nsamples = 20\nvalue = [0, 28]"] ;
314 -> 315 ;
316 [label="Emb median <= -0.0\ngini = 0.3\nsamples = 25\nvalue = [7, 32]"] ;
314 -> 316 ;
317 [label="gini = 0.4\nsamples = 8\nvalue = [4, 9]"] ;
316 -> 317 ;
318 [label="Emb std <= 0.2\ngini = 0.2\nsamples = 17\nvalue = [3, 23]"] ;
316 -> 318 ;
319 [label="gini = 0.4\nsamples = 8\nvalue = [3, 9]"] ;
318 -> 319 ;
320 [label="gini = 0.0\nsamples = 9\nvalue = [0, 14]"] ;
318 -> 320 ;
321 [label="gini = 0.5\nsamples = 10\nvalue = [10, 11]"] ;
313 -> 321 ;
322 [label="Emb std <= 0.3\ngini = 0.2\nsamples = 105\nvalue = [144, 17]"] ;
312 -> 322 ;
323 [label="Emb PCA <= -0.2\ngini = 0.5\nsamples = 20\nvalue = [19, 13]"] ;
322 -> 323 ;
324 [label="gini = 0.5\nsamples = 9\nvalue = [6, 9]"] ;
323 -> 324 ;
325 [label="gini = 0.4\nsamples = 11\nvalue = [13, 4]"] ;
323 -> 325 ;
326 [label="Emb std <= 0.3\ngini = 0.1\nsamples = 85\nvalue = [125, 4]"] ;
322 -> 326 ;
327 [label="gini = 0.2\nsamples = 13\nvalue = [19, 3]"] ;
326 -> 327 ;
328 [label="Mass <= 31512.4\ngini = 0.0\nsamples = 72\nvalue = [106, 1]"] ;
326 -> 328 ;
329 [label="gini = 0.0\nsamples = 46\nvalue = [76, 0]"] ;
328 -> 329 ;
330 [label="Emb std <= 0.3\ngini = 0.1\nsamples = 26\nvalue = [30, 1]"] ;
328 -> 330 ;
331 [label="gini = 0.2\nsamples = 8\nvalue = [8, 1]"] ;
330 -> 331 ;
332 [label="gini = 0.0\nsamples = 18\nvalue = [22, 0]"] ;
330 -> 332 ;
333 [label="Mass <= 23355.5\ngini = 0.0\nsamples = 3820\nvalue = [6046, 71]"] ;
311 -> 333 ;
334 [label="Mass <= 9197.2\ngini = 0.0\nsamples = 1420\nvalue = [2291, 6]"] ;
333 -> 334 ;
335 [label="Emb median <= -0.0\ngini = 0.0\nsamples = 237\nvalue = [380, 3]"] ;
334 -> 335 ;
336 [label="Mass <= 9051.2\ngini = 0.0\nsamples = 97\nvalue = [150, 3]"] ;
335 -> 336 ;
337 [label="gini = 0.0\nsamples = 89\nvalue = [140, 0]"] ;
336 -> 337 ;
338 [label="gini = 0.4\nsamples = 8\nvalue = [10, 3]"] ;
336 -> 338 ;
339 [label="gini = 0.0\nsamples = 140\nvalue = [230, 0]"] ;
335 -> 339 ;
340 [label="Emb PCA <= -0.0\ngini = 0.0\nsamples = 1183\nvalue = [1911, 3]"] ;
334 -> 340 ;
341 [label="gini = 0.2\nsamples = 8\nvalue = [10, 1]"] ;
340 -> 341 ;
342 [label="Emb PCA <= 0.2\ngini = 0.0\nsamples = 1175\nvalue = [1901, 2]"] ;
340 -> 342 ;
343 [label="Mass <= 18115.9\ngini = 0.0\nsamples = 124\nvalue = [185, 2]"] ;
342 -> 343 ;
344 [label="gini = 0.0\nsamples = 91\nvalue = [133, 0]"] ;
343 -> 344 ;
345 [label="Emb magnitude <= 12.8\ngini = 0.1\nsamples = 33\nvalue = [52, 2]"] ;
343 -> 345 ;
346 [label="gini = 0.2\nsamples = 10\nvalue = [13, 2]"] ;
345 -> 346 ;
347 [label="gini = 0.0\nsamples = 23\nvalue = [39, 0]"] ;
345 -> 347 ;
348 [label="gini = 0.0\nsamples = 1051\nvalue = [1716, 0]"] ;
342 -> 348 ;
349 [label="Mass <= 23460.0\ngini = 0.0\nsamples = 2400\nvalue = [3755, 65]"] ;
333 -> 349 ;
350 [label="gini = 0.4\nsamples = 8\nvalue = [9, 3]"] ;
349 -> 350 ;
351 [label="Emb PCA <= 0.1\ngini = 0.0\nsamples = 2392\nvalue = [3746, 62]"] ;
349 -> 351 ;
352 [label="Mass <= 28285.5\ngini = 0.3\nsamples = 175\nvalue = [237, 43]"] ;
351 -> 352 ;
353 [label="Emb median <= -0.0\ngini = 0.1\nsamples = 32\nvalue = [49, 3]"] ;
352 -> 353 ;
354 [label="Mass <= 26437.9\ngini = 0.0\nsamples = 24\nvalue = [40, 1]"] ;
353 -> 354 ;
355 [label="gini = 0.0\nsamples = 16\nvalue = [26, 0]"] ;
354 -> 355 ;
356 [label="gini = 0.1\nsamples = 8\nvalue = [14, 1]"] ;
354 -> 356 ;
357 [label="gini = 0.3\nsamples = 8\nvalue = [9, 2]"] ;
353 -> 357 ;
358 [label="Mass <= 32287.2\ngini = 0.3\nsamples = 143\nvalue = [188, 40]"] ;
352 -> 358 ;
359 [label="gini = 0.5\nsamples = 13\nvalue = [12, 10]"] ;
358 -> 359 ;
360 [label="Emb median <= -0.0\ngini = 0.2\nsamples = 130\nvalue = [176, 30]"] ;
358 -> 360 ;
361 [label="gini = 0.1\nsamples = 71\nvalue = [114, 7]"] ;
360 -> 361 ;
362 [label="gini = 0.4\nsamples = 59\nvalue = [62, 23]"] ;
360 -> 362 ;
363 [label="Emb median <= -0.0\ngini = 0.0\nsamples = 2217\nvalue = [3509, 19]"] ;
351 -> 363 ;
364 [label="gini = 0.1\nsamples = 10\nvalue = [17, 1]"] ;
363 -> 364 ;
365 [label="Emb std <= 0.2\ngini = 0.0\nsamples = 2207\nvalue = [3492, 18]"] ;
363 -> 365 ;
366 [label="Emb PCA <= 0.3\ngini = 0.1\nsamples = 161\nvalue = [264, 10]"] ;
365 -> 366 ;
367 [label="gini = 0.5\nsamples = 9\nvalue = [8, 7]"] ;
366 -> 367 ;
368 [label="gini = 0.0\nsamples = 152\nvalue = [256, 3]"] ;
366 -> 368 ;
369 [label="Emb magnitude <= 12.5\ngini = 0.0\nsamples = 2046\nvalue = [3228, 8]"] ;
365 -> 369 ;
370 [label="gini = 0.0\nsamples = 97\nvalue = [154, 2]"] ;
369 -> 370 ;
371 [label="gini = 0.0\nsamples = 1949\nvalue = [3074, 6]"] ;
369 -> 371 ;
372 [label="Emb magnitude <= 13.5\ngini = 0.1\nsamples = 15243\nvalue = [22936, 1301]"] ;
0 -> 372 [labeldistance=2.5, labelangle=-45, headlabel="False"] ;
373 [label="Emb PCA <= -0.8\ngini = 0.2\nsamples = 4004\nvalue = [5465, 819]"] ;
372 -> 373 ;
374 [label="Emb PCA <= -1.0\ngini = 0.1\nsamples = 509\nvalue = [41, 776]"] ;
373 -> 374 ;
375 [label="Mass <= 15324.2\ngini = 0.0\nsamples = 443\nvalue = [7, 715]"] ;
374 -> 375 ;
376 [label="Emb PCA <= -1.4\ngini = 0.2\nsamples = 23\nvalue = [4, 25]"] ;
375 -> 376 ;
377 [label="gini = 0.0\nsamples = 11\nvalue = [0, 14]"] ;
376 -> 377 ;
378 [label="gini = 0.4\nsamples = 12\nvalue = [4, 11]"] ;
376 -> 378 ;
379 [label="Mass <= 25035.5\ngini = 0.0\nsamples = 420\nvalue = [3, 690]"] ;
375 -> 379 ;
380 [label="Emb PCA <= -1.2\ngini = 0.1\nsamples = 47\nvalue = [3, 71]"] ;
379 -> 380 ;
381 [label="gini = 0.0\nsamples = 39\nvalue = [0, 62]"] ;
380 -> 381 ;
382 [label="gini = 0.4\nsamples = 8\nvalue = [3, 9]"] ;
380 -> 382 ;
383 [label="gini = 0.0\nsamples = 373\nvalue = [0, 619]"] ;
379 -> 383 ;
384 [label="Emb std <= 0.3\ngini = 0.5\nsamples = 66\nvalue = [34, 61]"] ;
374 -> 384 ;
385 [label="Mass <= 21083.5\ngini = 0.1\nsamples = 46\nvalue = [4, 61]"] ;
384 -> 385 ;
386 [label="gini = 0.5\nsamples = 8\nvalue = [4, 6]"] ;
385 -> 386 ;
387 [label="gini = 0.0\nsamples = 38\nvalue = [0, 55]"] ;
385 -> 387 ;
388 [label="gini = 0.0\nsamples = 20\nvalue = [30, 0]"] ;
384 -> 388 ;
389 [label="Emb magnitude <= 13.1\ngini = 0.0\nsamples = 3495\nvalue = [5424, 43]"] ;
373 -> 389 ;
390 [label="Mass <= 23512.3\ngini = 0.1\nsamples = 565\nvalue = [869, 23]"] ;
389 -> 390 ;
391 [label="gini = 0.0\nsamples = 200\nvalue = [320, 0]"] ;
390 -> 391 ;
392 [label="Emb median <= -0.0\ngini = 0.1\nsamples = 365\nvalue = [549, 23]"] ;
390 -> 392 ;
393 [label="Emb PCA <= -0.5\ngini = 0.1\nsamples = 243\nvalue = [375, 10]"] ;
392 -> 393 ;
394 [label="gini = 0.4\nsamples = 8\nvalue = [3, 9]"] ;
393 -> 394 ;
395 [label="Emb std <= 0.3\ngini = 0.0\nsamples = 235\nvalue = [372, 1]"] ;
393 -> 395 ;
396 [label="Emb std <= 0.3\ngini = 0.0\nsamples = 28\nvalue = [42, 1]"] ;
395 -> 396 ;
397 [label="gini = 0.0\nsamples = 20\nvalue = [27, 0]"] ;
396 -> 397 ;
398 [label="gini = 0.1\nsamples = 8\nvalue = [15, 1]"] ;
396 -> 398 ;
399 [label="gini = 0.0\nsamples = 207\nvalue = [330, 0]"] ;
395 -> 399 ;
400 [label="Emb PCA <= -0.4\ngini = 0.1\nsamples = 122\nvalue = [174, 13]"] ;
392 -> 400 ;
401 [label="gini = 0.0\nsamples = 8\nvalue = [0, 13]"] ;
400 -> 401 ;
402 [label="gini = 0.0\nsamples = 114\nvalue = [174, 0]"] ;
400 -> 402 ;
403 [label="Mass <= 31203.3\ngini = 0.0\nsamples = 2930\nvalue = [4555, 20]"] ;
389 -> 403 ;
404 [label="Mass <= 5495.1\ngini = 0.0\nsamples = 1459\nvalue = [2282, 2]"] ;
403 -> 404 ;
405 [label="Emb magnitude <= 13.1\ngini = 0.0\nsamples = 64\nvalue = [91, 1]"] ;
404 -> 405 ;
406 [label="gini = 0.2\nsamples = 8\nvalue = [8, 1]"] ;
405 -> 406 ;
407 [label="gini = 0.0\nsamples = 56\nvalue = [83, 0]"] ;
405 -> 407 ;
408 [label="Emb std <= 0.3\ngini = 0.0\nsamples = 1395\nvalue = [2191, 1]"] ;
404 -> 408 ;
409 [label="Emb magnitude <= 13.2\ngini = 0.0\nsamples = 513\nvalue = [764, 1]"] ;
408 -> 409 ;
410 [label="gini = 0.0\nsamples = 505\nvalue = [752, 0]"] ;
409 -> 410 ;
411 [label="gini = 0.1\nsamples = 8\nvalue = [12, 1]"] ;
409 -> 411 ;
412 [label="gini = 0.0\nsamples = 882\nvalue = [1427, 0]"] ;
408 -> 412 ;
413 [label="Emb PCA <= -0.8\ngini = 0.0\nsamples = 1471\nvalue = [2273, 18]"] ;
403 -> 413 ;
414 [label="gini = 0.5\nsamples = 14\nvalue = [12, 9]"] ;
413 -> 414 ;
415 [label="Emb std <= 0.3\ngini = 0.0\nsamples = 1457\nvalue = [2261, 9]"] ;
413 -> 415 ;
416 [label="Emb PCA <= -0.3\ngini = 0.0\nsamples = 122\nvalue = [182, 3]"] ;
415 -> 416 ;
417 [label="gini = 0.3\nsamples = 8\nvalue = [10, 2]"] ;
416 -> 417 ;
418 [label="Emb magnitude <= 13.1\ngini = 0.0\nsamples = 114\nvalue = [172, 1]"] ;
416 -> 418 ;
419 [label="gini = 0.0\nsamples = 106\nvalue = [162, 0]"] ;
418 -> 419 ;
420 [label="gini = 0.2\nsamples = 8\nvalue = [10, 1]"] ;
418 -> 420 ;
421 [label="Emb median <= -0.0\ngini = 0.0\nsamples = 1335\nvalue = [2079, 6]"] ;
415 -> 421 ;
422 [label="Emb PCA <= -0.6\ngini = 0.0\nsamples = 838\nvalue = [1305, 1]"] ;
421 -> 422 ;
423 [label="Mass <= 40633.4\ngini = 0.1\nsamples = 26\nvalue = [32, 1]"] ;
422 -> 423 ;
424 [label="gini = 0.2\nsamples = 8\nvalue = [9, 1]"] ;
423 -> 424 ;
425 [label="gini = 0.0\nsamples = 18\nvalue = [23, 0]"] ;
423 -> 425 ;
426 [label="gini = 0.0\nsamples = 812\nvalue = [1273, 0]"] ;
422 -> 426 ;
427 [label="Mass <= 34751.7\ngini = 0.0\nsamples = 497\nvalue = [774, 5]"] ;
421 -> 427 ;
428 [label="Emb magnitude <= 13.3\ngini = 0.1\nsamples = 43\nvalue = [67, 3]"] ;
427 -> 428 ;
429 [label="gini = 0.0\nsamples = 29\nvalue = [45, 1]"] ;
428 -> 429 ;
430 [label="gini = 0.2\nsamples = 14\nvalue = [22, 2]"] ;
428 -> 430 ;
431 [label="Mass <= 48864.8\ngini = 0.0\nsamples = 454\nvalue = [707, 2]"] ;
427 -> 431 ;
432 [label="gini = 0.0\nsamples = 141\nvalue = [222, 2]"] ;
431 -> 432 ;
433 [label="gini = 0.0\nsamples = 313\nvalue = [485, 0]"] ;
431 -> 433 ;
434 [label="Mass <= 25728.9\ngini = 0.1\nsamples = 11239\nvalue = [17471, 482]"] ;
372 -> 434 ;
435 [label="Emb std <= 0.3\ngini = 0.0\nsamples = 6540\nvalue = [10395, 94]"] ;
434 -> 435 ;
436 [label="Emb magnitude <= 13.9\ngini = 0.0\nsamples = 1347\nvalue = [2188, 43]"] ;
435 -> 436 ;
437 [label="Mass <= 17947.9\ngini = 0.0\nsamples = 1339\nvalue = [2178, 40]"] ;
436 -> 437 ;
438 [label="Emb magnitude <= 13.5\ngini = 0.0\nsamples = 937\nvalue = [1548, 18]"] ;
437 -> 438 ;
439 [label="Emb std <= 0.3\ngini = 0.1\nsamples = 24\nvalue = [34, 2]"] ;
438 -> 439 ;
440 [label="gini = 0.0\nsamples = 16\nvalue = [22, 0]"] ;
439 -> 440 ;
441 [label="gini = 0.2\nsamples = 8\nvalue = [12, 2]"] ;
439 -> 441 ;
442 [label="Emb magnitude <= 13.7\ngini = 0.0\nsamples = 913\nvalue = [1514, 16]"] ;
438 -> 442 ;
443 [label="Emb std <= 0.3\ngini = 0.0\nsamples = 464\nvalue = [792, 4]"] ;
442 -> 443 ;
444 [label="Emb PCA <= -1.2\ngini = 0.0\nsamples = 339\nvalue = [575, 4]"] ;
443 -> 444 ;
445 [label="gini = 0.5\nsamples = 8\nvalue = [7, 4]"] ;
444 -> 445 ;
446 [label="gini = 0.0\nsamples = 331\nvalue = [568, 0]"] ;
444 -> 446 ;
447 [label="gini = 0.0\nsamples = 125\nvalue = [217, 0]"] ;
443 -> 447 ;
448 [label="Emb PCA <= -1.9\ngini = 0.0\nsamples = 449\nvalue = [722, 12]"] ;
442 -> 448 ;
449 [label="gini = 0.0\nsamples = 10\nvalue = [0, 11]"] ;
448 -> 449 ;
450 [label="Emb median <= -0.0\ngini = 0.0\nsamples = 439\nvalue = [722, 1]"] ;
448 -> 450 ;
451 [label="gini = 0.0\nsamples = 44\nvalue = [73, 1]"] ;
450 -> 451 ;
452 [label="gini = 0.0\nsamples = 395\nvalue = [649, 0]"] ;
450 -> 452 ;
453 [label="Emb PCA <= -1.5\ngini = 0.1\nsamples = 402\nvalue = [630, 22]"] ;
437 -> 453 ;
454 [label="Emb std <= 0.3\ngini = 0.1\nsamples = 17\nvalue = [1, 21]"] ;
453 -> 454 ;
455 [label="gini = 0.0\nsamples = 9\nvalue = [0, 13]"] ;
454 -> 455 ;
456 [label="gini = 0.2\nsamples = 8\nvalue = [1, 8]"] ;
454 -> 456 ;
457 [label="Emb PCA <= -1.1\ngini = 0.0\nsamples = 385\nvalue = [629, 1]"] ;
453 -> 457 ;
458 [label="Emb PCA <= -1.2\ngini = 0.0\nsamples = 24\nvalue = [47, 1]"] ;
457 -> 458 ;
459 [label="gini = 0.0\nsamples = 16\nvalue = [32, 0]"] ;
458 -> 459 ;
460 [label="gini = 0.1\nsamples = 8\nvalue = [15, 1]"] ;
458 -> 460 ;
461 [label="gini = 0.0\nsamples = 361\nvalue = [582, 0]"] ;
457 -> 461 ;
462 [label="gini = 0.4\nsamples = 8\nvalue = [10, 3]"] ;
436 -> 462 ;
463 [label="Mass <= 21621.5\ngini = 0.0\nsamples = 5193\nvalue = [8207, 51]"] ;
435 -> 463 ;
464 [label="Emb PCA <= -3.2\ngini = 0.0\nsamples = 4734\nvalue = [7470, 38]"] ;
463 -> 464 ;
465 [label="gini = 0.5\nsamples = 14\nvalue = [9, 11]"] ;
464 -> 465 ;
466 [label="Mass <= 16915.4\ngini = 0.0\nsamples = 4720\nvalue = [7461, 27]"] ;
464 -> 466 ;
467 [label="Emb magnitude <= 14.6\ngini = 0.0\nsamples = 4007\nvalue = [6325, 17]"] ;
466 -> 467 ;
468 [label="Emb PCA <= -2.9\ngini = 0.0\nsamples = 2417\nvalue = [3855, 14]"] ;
467 -> 468 ;
469 [label="Emb magnitude <= 14.4\ngini = 0.2\nsamples = 54\nvalue = [81, 9]"] ;
468 -> 469 ;
470 [label="gini = 0.4\nsamples = 8\nvalue = [9, 4]"] ;
469 -> 470 ;
471 [label="gini = 0.1\nsamples = 46\nvalue = [72, 5]"] ;
469 -> 471 ;
472 [label="Emb PCA <= -2.8\ngini = 0.0\nsamples = 2363\nvalue = [3774, 5]"] ;
468 -> 472 ;
473 [label="gini = 0.0\nsamples = 113\nvalue = [199, 2]"] ;
472 -> 473 ;
474 [label="gini = 0.0\nsamples = 2250\nvalue = [3575, 3]"] ;
472 -> 474 ;
475 [label="Emb median <= -0.0\ngini = 0.0\nsamples = 1590\nvalue = [2470, 3]"] ;
467 -> 475 ;
476 [label="Emb median <= -0.0\ngini = 0.0\nsamples = 722\nvalue = [1146, 3]"] ;
475 -> 476 ;
477 [label="gini = 0.0\nsamples = 714\nvalue = [1138, 2]"] ;
476 -> 477 ;
478 [label="gini = 0.2\nsamples = 8\nvalue = [8, 1]"] ;
476 -> 478 ;
479 [label="gini = 0.0\nsamples = 868\nvalue = [1324, 0]"] ;
475 -> 479 ;
480 [label="Emb PCA <= -2.4\ngini = 0.0\nsamples = 713\nvalue = [1136, 10]"] ;
466 -> 480 ;
481 [label="Emb std <= 0.3\ngini = 0.0\nsamples = 250\nvalue = [417, 10]"] ;
480 -> 481 ;
482 [label="gini = 0.4\nsamples = 8\nvalue = [9, 4]"] ;
481 -> 482 ;
483 [label="Emb median <= -0.0\ngini = 0.0\nsamples = 242\nvalue = [408, 6]"] ;
481 -> 483 ;
484 [label="gini = 0.0\nsamples = 226\nvalue = [386, 1]"] ;
483 -> 484 ;
485 [label="gini = 0.3\nsamples = 16\nvalue = [22, 5]"] ;
483 -> 485 ;
486 [label="gini = 0.0\nsamples = 463\nvalue = [719, 0]"] ;
480 -> 486 ;
487 [label="Mass <= 21768.9\ngini = 0.0\nsamples = 459\nvalue = [737, 13]"] ;
463 -> 487 ;
488 [label="Emb median <= -0.0\ngini = 0.2\nsamples = 25\nvalue = [43, 5]"] ;
487 -> 488 ;
489 [label="gini = 0.3\nsamples = 14\nvalue = [20, 5]"] ;
488 -> 489 ;
490 [label="gini = 0.0\nsamples = 11\nvalue = [23, 0]"] ;
488 -> 490 ;
491 [label="Emb PCA <= -2.8\ngini = 0.0\nsamples = 434\nvalue = [694, 8]"] ;
487 -> 491 ;
492 [label="Emb median <= -0.0\ngini = 0.2\nsamples = 31\nvalue = [44, 7]"] ;
491 -> 492 ;
493 [label="Emb magnitude <= 14.7\ngini = 0.1\nsamples = 17\nvalue = [28, 1]"] ;
492 -> 493 ;
494 [label="gini = 0.0\nsamples = 9\nvalue = [18, 0]"] ;
493 -> 494 ;
495 [label="gini = 0.2\nsamples = 8\nvalue = [10, 1]"] ;
493 -> 495 ;
496 [label="gini = 0.4\nsamples = 14\nvalue = [16, 6]"] ;
492 -> 496 ;
497 [label="Mass <= 25231.1\ngini = 0.0\nsamples = 403\nvalue = [650, 1]"] ;
491 -> 497 ;
498 [label="gini = 0.0\nsamples = 362\nvalue = [575, 0]"] ;
497 -> 498 ;
499 [label="Mass <= 25326.8\ngini = 0.0\nsamples = 41\nvalue = [75, 1]"] ;
497 -> 499 ;
500 [label="gini = 0.2\nsamples = 8\nvalue = [7, 1]"] ;
499 -> 500 ;
501 [label="gini = 0.0\nsamples = 33\nvalue = [68, 0]"] ;
499 -> 501 ;
502 [label="Emb std <= 0.3\ngini = 0.1\nsamples = 4699\nvalue = [7076, 388]"] ;
434 -> 502 ;
503 [label="Emb median <= -0.0\ngini = 0.1\nsamples = 2340\nvalue = [3398, 279]"] ;
502 -> 503 ;
504 [label="Emb std <= 0.3\ngini = 0.3\nsamples = 118\nvalue = [155, 30]"] ;
503 -> 504 ;
505 [label="Emb PCA <= -1.0\ngini = 0.1\nsamples = 47\nvalue = [63, 2]"] ;
504 -> 505 ;
506 [label="gini = 0.3\nsamples = 8\nvalue = [7, 2]"] ;
505 -> 506 ;
507 [label="gini = 0.0\nsamples = 39\nvalue = [56, 0]"] ;
505 -> 507 ;
508 [label="Emb median <= -0.0\ngini = 0.4\nsamples = 71\nvalue = [92, 28]"] ;
504 -> 508 ;
509 [label="Emb magnitude <= 13.9\ngini = 0.3\nsamples = 56\nvalue = [77, 16]"] ;
508 -> 509 ;
510 [label="Mass <= 41435.0\ngini = 0.3\nsamples = 45\nvalue = [58, 16]"] ;
509 -> 510 ;
511 [label="gini = 0.0\nsamples = 21\nvalue = [35, 0]"] ;
510 -> 511 ;
512 [label="Mass <= 56839.4\ngini = 0.5\nsamples = 24\nvalue = [23, 16]"] ;
510 -> 512 ;
513 [label="gini = 0.5\nsamples = 10\nvalue = [6, 10]"] ;
512 -> 513 ;
514 [label="gini = 0.4\nsamples = 14\nvalue = [17, 6]"] ;
512 -> 514 ;
515 [label="gini = 0.0\nsamples = 11\nvalue = [19, 0]"] ;
509 -> 515 ;
516 [label="gini = 0.5\nsamples = 15\nvalue = [15, 12]"] ;
508 -> 516 ;
517 [label="Mass <= 117782.9\ngini = 0.1\nsamples = 2222\nvalue = [3243, 249]"] ;
503 -> 517 ;
518 [label="Emb median <= -0.0\ngini = 0.2\nsamples = 1925\nvalue = [2784, 249]"] ;
517 -> 518 ;
519 [label="Emb PCA <= -1.6\ngini = 0.2\nsamples = 1590\nvalue = [2282, 228]"] ;
518 -> 519 ;
520 [label="Emb magnitude <= 13.9\ngini = 0.1\nsamples = 136\nvalue = [6, 213]"] ;
519 -> 520 ;
521 [label="Emb std <= 0.3\ngini = 0.0\nsamples = 120\nvalue = [1, 195]"] ;
520 -> 521 ;
522 [label="gini = 0.0\nsamples = 110\nvalue = [0, 180]"] ;
521 -> 522 ;
523 [label="gini = 0.1\nsamples = 10\nvalue = [1, 15]"] ;
521 -> 523 ;
524 [label="Emb median <= -0.0\ngini = 0.3\nsamples = 16\nvalue = [5, 18]"] ;
520 -> 524 ;
525 [label="gini = 0.4\nsamples = 8\nvalue = [4, 8]"] ;
524 -> 525 ;
526 [label="gini = 0.2\nsamples = 8\nvalue = [1, 10]"] ;
524 -> 526 ;
527 [label="Mass <= 110355.9\ngini = 0.0\nsamples = 1454\nvalue = [2276, 15]"] ;
519 -> 527 ;
528 [label="Emb magnitude <= 13.7\ngini = 0.0\nsamples = 1416\nvalue = [2221, 10]"] ;
527 -> 528 ;
529 [label="gini = 0.0\nsamples = 812\nvalue = [1250, 10]"] ;
528 -> 529 ;
530 [label="gini = 0.0\nsamples = 604\nvalue = [971, 0]"] ;
528 -> 530 ;
531 [label="Emb median <= -0.0\ngini = 0.2\nsamples = 38\nvalue = [55, 5]"] ;
527 -> 531 ;
532 [label="gini = 0.0\nsamples = 30\nvalue = [48, 0]"] ;
531 -> 532 ;
533 [label="gini = 0.5\nsamples = 8\nvalue = [7, 5]"] ;
531 -> 533 ;
534 [label="Emb PCA <= -1.6\ngini = 0.1\nsamples = 335\nvalue = [502, 21]"] ;
518 -> 534 ;
535 [label="gini = 0.0\nsamples = 13\nvalue = [0, 18]"] ;
534 -> 535 ;
536 [label="Emb PCA <= -1.2\ngini = 0.0\nsamples = 322\nvalue = [502, 3]"] ;
534 -> 536 ;
537 [label="gini = 0.4\nsamples = 8\nvalue = [10, 3]"] ;
536 -> 537 ;
538 [label="gini = 0.0\nsamples = 314\nvalue = [492, 0]"] ;
536 -> 538 ;
539 [label="gini = 0.0\nsamples = 297\nvalue = [459, 0]"] ;
517 -> 539 ;
540 [label="Emb PCA <= -3.0\ngini = 0.1\nsamples = 2359\nvalue = [3678, 109]"] ;
502 -> 540 ;
541 [label="Mass <= 53633.0\ngini = 0.4\nsamples = 35\nvalue = [16, 40]"] ;
540 -> 541 ;
542 [label="Emb median <= -0.0\ngini = 0.5\nsamples = 27\nvalue = [16, 27]"] ;
541 -> 542 ;
543 [label="gini = 0.3\nsamples = 12\nvalue = [3, 14]"] ;
542 -> 543 ;
544 [label="gini = 0.5\nsamples = 15\nvalue = [13, 13]"] ;
542 -> 544 ;
545 [label="gini = 0.0\nsamples = 8\nvalue = [0, 13]"] ;
541 -> 545 ;
546 [label="Emb magnitude <= 14.3\ngini = 0.0\nsamples = 2324\nvalue = [3662, 69]"] ;
540 -> 546 ;
547 [label="Emb std <= 0.3\ngini = 0.1\nsamples = 1222\nvalue = [1907, 62]"] ;
546 -> 547 ;
548 [label="Emb std <= 0.3\ngini = 0.1\nsamples = 1214\nvalue = [1893, 58]"] ;
547 -> 548 ;
549 [label="Mass <= 41011.8\ngini = 0.1\nsamples = 364\nvalue = [547, 27]"] ;
548 -> 549 ;
550 [label="Mass <= 26978.3\ngini = 0.0\nsamples = 126\nvalue = [202, 1]"] ;
549 -> 550 ;
551 [label="gini = 0.2\nsamples = 8\nvalue = [9, 1]"] ;
550 -> 551 ;
552 [label="gini = 0.0\nsamples = 118\nvalue = [193, 0]"] ;
550 -> 552 ;
553 [label="Emb PCA <= -1.7\ngini = 0.1\nsamples = 238\nvalue = [345, 26]"] ;
549 -> 553 ;
554 [label="gini = 0.1\nsamples = 16\nvalue = [1, 25]"] ;
553 -> 554 ;
555 [label="gini = 0.0\nsamples = 222\nvalue = [344, 1]"] ;
553 -> 555 ;
556 [label="Emb std <= 0.3\ngini = 0.0\nsamples = 850\nvalue = [1346, 31]"] ;
548 -> 556 ;
557 [label="Emb std <= 0.3\ngini = 0.0\nsamples = 234\nvalue = [371, 2]"] ;
556 -> 557 ;
558 [label="gini = 0.0\nsamples = 127\nvalue = [194, 2]"] ;
557 -> 558 ;
559 [label="gini = 0.0\nsamples = 107\nvalue = [177, 0]"] ;
557 -> 559 ;
560 [label="Emb median <= -0.0\ngini = 0.1\nsamples = 616\nvalue = [975, 29]"] ;
556 -> 560 ;
561 [label="gini = 0.0\nsamples = 605\nvalue = [951, 25]"] ;
560 -> 561 ;
562 [label="gini = 0.2\nsamples = 11\nvalue = [24, 4]"] ;
560 -> 562 ;
563 [label="gini = 0.3\nsamples = 8\nvalue = [14, 4]"] ;
547 -> 563 ;
564 [label="Emb PCA <= -2.7\ngini = 0.0\nsamples = 1102\nvalue = [1755, 7]"] ;
546 -> 564 ;
565 [label="Emb magnitude <= 14.4\ngini = 0.0\nsamples = 154\nvalue = [258, 6]"] ;
564 -> 565 ;
566 [label="gini = 0.4\nsamples = 8\nvalue = [10, 3]"] ;
565 -> 566 ;
567 [label="Mass <= 34487.6\ngini = 0.0\nsamples = 146\nvalue = [248, 3]"] ;
565 -> 567 ;
568 [label="Emb magnitude <= 14.6\ngini = 0.1\nsamples = 63\nvalue = [100, 3]"] ;
567 -> 568 ;
569 [label="gini = 0.2\nsamples = 20\nvalue = [27, 3]"] ;
568 -> 569 ;
570 [label="gini = 0.0\nsamples = 43\nvalue = [73, 0]"] ;
568 -> 570 ;
571 [label="gini = 0.0\nsamples = 83\nvalue = [148, 0]"] ;
567 -> 571 ;
572 [label="Mass <= 27631.9\ngini = 0.0\nsamples = 948\nvalue = [1497, 1]"] ;
564 -> 572 ;
573 [label="Emb std <= 0.3\ngini = 0.0\nsamples = 85\nvalue = [124, 1]"] ;
572 -> 573 ;
574 [label="gini = 0.2\nsamples = 8\nvalue = [9, 1]"] ;
573 -> 574 ;
575 [label="gini = 0.0\nsamples = 77\nvalue = [115, 0]"] ;
573 -> 575 ;
576 [label="gini = 0.0\nsamples = 863\nvalue = [1373, 0]"] ;
572 -> 576 ;
}