digraph Tree {
node [shape=box, style="rounded", color="black", fontname="helvetica"] ;
edge [fontname="helvetica"] ;
0 [label="PCA 24 <= 0.2\ngini = 0.5\nsamples = 32312\nvalue = [26397, 24736]"] ;
1 [label="PCA 19 <= -0.3\ngini = 0.5\nsamples = 29203\nvalue = [23430, 22924]"] ;
0 -> 1 [labeldistance=2.5, labelangle=45, headlabel="True"] ;
2 [label="PCA 21 <= 0.3\ngini = 0.4\nsamples = 1069\nvalue = [1316, 402]"] ;
1 -> 2 ;
3 [label="PCA 12 <= -0.2\ngini = 0.3\nsamples = 982\nvalue = [1265, 321]"] ;
2 -> 3 ;
4 [label="PCA 92 <= -0.0\ngini = 0.5\nsamples = 265\nvalue = [238, 186]"] ;
3 -> 4 ;
5 [label="PCA 143 <= -0.0\ngini = 0.4\nsamples = 125\nvalue = [143, 53]"] ;
4 -> 5 ;
6 [label="PCA 490 <= -0.0\ngini = 0.5\nsamples = 43\nvalue = [28, 32]"] ;
5 -> 6 ;
7 [label="PCA 582 <= 0.0\ngini = 0.3\nsamples = 28\nvalue = [8, 32]"] ;
6 -> 7 ;
8 [label="PCA 136 <= 0.0\ngini = 0.1\nsamples = 20\nvalue = [2, 28]"] ;
7 -> 8 ;
9 [label="gini = 0.3\nsamples = 8\nvalue = [2, 7]"] ;
8 -> 9 ;
10 [label="gini = 0.0\nsamples = 12\nvalue = [0, 21]"] ;
8 -> 10 ;
11 [label="gini = 0.5\nsamples = 8\nvalue = [6, 4]"] ;
7 -> 11 ;
12 [label="gini = 0.0\nsamples = 15\nvalue = [20, 0]"] ;
6 -> 12 ;
13 [label="PCA 201 <= -0.1\ngini = 0.3\nsamples = 82\nvalue = [115, 21]"] ;
5 -> 13 ;
14 [label="gini = 0.5\nsamples = 10\nvalue = [6, 11]"] ;
13 -> 14 ;
15 [label="PCA 33 <= 0.1\ngini = 0.2\nsamples = 72\nvalue = [109, 10]"] ;
13 -> 15 ;
16 [label="PCA 141 <= -0.0\ngini = 0.1\nsamples = 62\nvalue = [100, 3]"] ;
15 -> 16 ;
17 [label="gini = 0.3\nsamples = 12\nvalue = [14, 3]"] ;
16 -> 17 ;
18 [label="gini = 0.0\nsamples = 50\nvalue = [86, 0]"] ;
16 -> 18 ;
19 [label="gini = 0.5\nsamples = 10\nvalue = [9, 7]"] ;
15 -> 19 ;
20 [label="PCA 36 <= 0.1\ngini = 0.5\nsamples = 140\nvalue = [95, 133]"] ;
4 -> 20 ;
21 [label="PCA 76 <= -0.0\ngini = 0.4\nsamples = 103\nvalue = [47, 125]"] ;
20 -> 21 ;
22 [label="PCA 201 <= 0.0\ngini = 0.2\nsamples = 59\nvalue = [9, 91]"] ;
21 -> 22 ;
23 [label="gini = 0.4\nsamples = 15\nvalue = [7, 17]"] ;
22 -> 23 ;
24 [label="PCA 42 <= 0.1\ngini = 0.1\nsamples = 44\nvalue = [2, 74]"] ;
22 -> 24 ;
25 [label="gini = 0.0\nsamples = 32\nvalue = [0, 61]"] ;
24 -> 25 ;
26 [label="gini = 0.2\nsamples = 12\nvalue = [2, 13]"] ;
24 -> 26 ;
27 [label="PCA 88 <= 0.0\ngini = 0.5\nsamples = 44\nvalue = [38, 34]"] ;
21 -> 27 ;
28 [label="PCA 268 <= -0.0\ngini = 0.2\nsamples = 21\nvalue = [31, 4]"] ;
27 -> 28 ;
29 [label="gini = 0.5\nsamples = 8\nvalue = [5, 4]"] ;
28 -> 29 ;
30 [label="gini = 0.0\nsamples = 13\nvalue = [26, 0]"] ;
28 -> 30 ;
31 [label="PCA 279 <= -0.0\ngini = 0.3\nsamples = 23\nvalue = [7, 30]"] ;
27 -> 31 ;
32 [label="gini = 0.0\nsamples = 15\nvalue = [0, 26]"] ;
31 -> 32 ;
33 [label="gini = 0.5\nsamples = 8\nvalue = [7, 4]"] ;
31 -> 33 ;
34 [label="PCA 114 <= 0.0\ngini = 0.2\nsamples = 37\nvalue = [48, 8]"] ;
20 -> 34 ;
35 [label="gini = 0.0\nsamples = 27\nvalue = [42, 0]"] ;
34 -> 35 ;
36 [label="gini = 0.5\nsamples = 10\nvalue = [6, 8]"] ;
34 -> 36 ;
37 [label="PCA 349 <= 0.1\ngini = 0.2\nsamples = 717\nvalue = [1027, 135]"] ;
3 -> 37 ;
38 [label="PCA 35 <= -0.1\ngini = 0.2\nsamples = 707\nvalue = [1022, 124]"] ;
37 -> 38 ;
39 [label="PCA 143 <= 0.1\ngini = 0.0\nsamples = 201\nvalue = [325, 2]"] ;
38 -> 39 ;
40 [label="gini = 0.0\nsamples = 193\nvalue = [318, 0]"] ;
39 -> 40 ;
41 [label="gini = 0.3\nsamples = 8\nvalue = [7, 2]"] ;
39 -> 41 ;
42 [label="PCA 98 <= 0.2\ngini = 0.3\nsamples = 506\nvalue = [697, 122]"] ;
38 -> 42 ;
43 [label="PCA 50 <= 0.2\ngini = 0.2\nsamples = 478\nvalue = [675, 100]"] ;
42 -> 43 ;
44 [label="PCA 372 <= 0.0\ngini = 0.2\nsamples = 454\nvalue = [653, 84]"] ;
43 -> 44 ;
45 [label="PCA 53 <= -0.2\ngini = 0.1\nsamples = 379\nvalue = [565, 50]"] ;
44 -> 45 ;
46 [label="gini = 0.4\nsamples = 9\nvalue = [3, 8]"] ;
45 -> 46 ;
47 [label="gini = 0.1\nsamples = 370\nvalue = [562, 42]"] ;
45 -> 47 ;
48 [label="PCA 388 <= 0.0\ngini = 0.4\nsamples = 75\nvalue = [88, 34]"] ;
44 -> 48 ;
49 [label="gini = 0.2\nsamples = 50\nvalue = [72, 11]"] ;
48 -> 49 ;
50 [label="gini = 0.5\nsamples = 25\nvalue = [16, 23]"] ;
48 -> 50 ;
51 [label="PCA 403 <= -0.0\ngini = 0.5\nsamples = 24\nvalue = [22, 16]"] ;
43 -> 51 ;
52 [label="gini = 0.0\nsamples = 9\nvalue = [17, 0]"] ;
51 -> 52 ;
53 [label="gini = 0.4\nsamples = 15\nvalue = [5, 16]"] ;
51 -> 53 ;
54 [label="PCA 119 <= 0.0\ngini = 0.5\nsamples = 28\nvalue = [22, 22]"] ;
42 -> 54 ;
55 [label="gini = 0.0\nsamples = 10\nvalue = [18, 0]"] ;
54 -> 55 ;
56 [label="PCA 247 <= -0.0\ngini = 0.3\nsamples = 18\nvalue = [4, 22]"] ;
54 -> 56 ;
57 [label="gini = 0.0\nsamples = 10\nvalue = [0, 15]"] ;
56 -> 57 ;
58 [label="gini = 0.5\nsamples = 8\nvalue = [4, 7]"] ;
56 -> 58 ;
59 [label="gini = 0.4\nsamples = 10\nvalue = [5, 11]"] ;
37 -> 59 ;
60 [label="PCA 28 <= 0.2\ngini = 0.5\nsamples = 87\nvalue = [51, 81]"] ;
2 -> 60 ;
61 [label="PCA 249 <= -0.0\ngini = 0.4\nsamples = 74\nvalue = [30, 77]"] ;
60 -> 61 ;
62 [label="PCA 477 <= -0.0\ngini = 0.1\nsamples = 36\nvalue = [2, 47]"] ;
61 -> 62 ;
63 [label="gini = 0.3\nsamples = 8\nvalue = [2, 7]"] ;
62 -> 63 ;
64 [label="gini = 0.0\nsamples = 28\nvalue = [0, 40]"] ;
62 -> 64 ;
65 [label="PCA 583 <= 0.0\ngini = 0.5\nsamples = 38\nvalue = [28, 30]"] ;
61 -> 65 ;
66 [label="PCA 566 <= 0.0\ngini = 0.3\nsamples = 25\nvalue = [7, 28]"] ;
65 -> 66 ;
67 [label="gini = 0.0\nsamples = 13\nvalue = [0, 19]"] ;
66 -> 67 ;
68 [label="gini = 0.5\nsamples = 12\nvalue = [7, 9]"] ;
66 -> 68 ;
69 [label="gini = 0.2\nsamples = 13\nvalue = [21, 2]"] ;
65 -> 69 ;
70 [label="gini = 0.3\nsamples = 13\nvalue = [21, 4]"] ;
60 -> 70 ;
71 [label="PCA 6 <= 0.1\ngini = 0.5\nsamples = 28134\nvalue = [22114, 22522]"] ;
1 -> 71 ;
72 [label="Mass <= 19970.8\ngini = 0.5\nsamples = 19968\nvalue = [13705, 18042]"] ;
71 -> 72 ;
73 [label="PCA 3 <= 0.2\ngini = 0.3\nsamples = 3764\nvalue = [5166, 887]"] ;
72 -> 73 ;
74 [label="PCA 555 <= 0.0\ngini = 0.3\nsamples = 2202\nvalue = [2786, 690]"] ;
73 -> 74 ;
75 [label="PCA 37 <= 0.1\ngini = 0.3\nsamples = 1877\nvalue = [2463, 492]"] ;
74 -> 75 ;
76 [label="PCA 47 <= -0.4\ngini = 0.2\nsamples = 1402\nvalue = [1971, 226]"] ;
75 -> 76 ;
77 [label="gini = 0.0\nsamples = 25\nvalue = [0, 38]"] ;
76 -> 77 ;
78 [label="PCA 396 <= 0.1\ngini = 0.2\nsamples = 1377\nvalue = [1971, 188]"] ;
76 -> 78 ;
79 [label="PCA 2 <= -1.4\ngini = 0.2\nsamples = 1367\nvalue = [1964, 176]"] ;
78 -> 79 ;
80 [label="gini = 0.2\nsamples = 9\nvalue = [1, 11]"] ;
79 -> 80 ;
81 [label="gini = 0.1\nsamples = 1358\nvalue = [1963, 165]"] ;
79 -> 81 ;
82 [label="gini = 0.5\nsamples = 10\nvalue = [7, 12]"] ;
78 -> 82 ;
83 [label="PCA 247 <= 0.1\ngini = 0.5\nsamples = 475\nvalue = [492, 266]"] ;
75 -> 83 ;
84 [label="PCA 44 <= -0.1\ngini = 0.4\nsamples = 440\nvalue = [482, 214]"] ;
83 -> 84 ;
85 [label="PCA 229 <= -0.1\ngini = 0.2\nsamples = 100\nvalue = [133, 19]"] ;
84 -> 85 ;
86 [label="gini = 0.2\nsamples = 8\nvalue = [1, 10]"] ;
85 -> 86 ;
87 [label="gini = 0.1\nsamples = 92\nvalue = [132, 9]"] ;
85 -> 87 ;
88 [label="PCA 628 <= 0.0\ngini = 0.5\nsamples = 340\nvalue = [349, 195]"] ;
84 -> 88 ;
89 [label="gini = 0.4\nsamples = 195\nvalue = [249, 76]"] ;
88 -> 89 ;
90 [label="gini = 0.5\nsamples = 145\nvalue = [100, 119]"] ;
88 -> 90 ;
91 [label="PCA 266 <= 0.1\ngini = 0.3\nsamples = 35\nvalue = [10, 52]"] ;
83 -> 91 ;
92 [label="PCA 226 <= -0.0\ngini = 0.0\nsamples = 27\nvalue = [1, 47]"] ;
91 -> 92 ;
93 [label="gini = 0.2\nsamples = 8\nvalue = [1, 10]"] ;
92 -> 93 ;
94 [label="gini = 0.0\nsamples = 19\nvalue = [0, 37]"] ;
92 -> 94 ;
95 [label="gini = 0.5\nsamples = 8\nvalue = [9, 5]"] ;
91 -> 95 ;
96 [label="PCA 11 <= 0.0\ngini = 0.5\nsamples = 325\nvalue = [323, 198]"] ;
74 -> 96 ;
97 [label="PCA 514 <= 0.0\ngini = 0.5\nsamples = 197\nvalue = [153, 166]"] ;
96 -> 97 ;
98 [label="PCA 116 <= 0.1\ngini = 0.4\nsamples = 102\nvalue = [60, 116]"] ;
97 -> 98 ;
99 [label="PCA 41 <= 0.0\ngini = 0.4\nsamples = 94\nvalue = [48, 116]"] ;
98 -> 99 ;
100 [label="gini = 0.3\nsamples = 72\nvalue = [21, 108]"] ;
99 -> 100 ;
101 [label="gini = 0.4\nsamples = 22\nvalue = [27, 8]"] ;
99 -> 101 ;
102 [label="gini = 0.0\nsamples = 8\nvalue = [12, 0]"] ;
98 -> 102 ;
103 [label="PCA 145 <= -0.1\ngini = 0.5\nsamples = 95\nvalue = [93, 50]"] ;
97 -> 103 ;
104 [label="PCA 43 <= 0.0\ngini = 0.4\nsamples = 26\nvalue = [12, 27]"] ;
103 -> 104 ;
105 [label="gini = 0.0\nsamples = 17\nvalue = [0, 26]"] ;
104 -> 105 ;
106 [label="gini = 0.1\nsamples = 9\nvalue = [12, 1]"] ;
104 -> 106 ;
107 [label="PCA 412 <= -0.0\ngini = 0.3\nsamples = 69\nvalue = [81, 23]"] ;
103 -> 107 ;
108 [label="gini = 0.0\nsamples = 32\nvalue = [51, 0]"] ;
107 -> 108 ;
109 [label="gini = 0.5\nsamples = 37\nvalue = [30, 23]"] ;
107 -> 109 ;
110 [label="PCA 114 <= -0.1\ngini = 0.3\nsamples = 128\nvalue = [170, 32]"] ;
96 -> 110 ;
111 [label="gini = 0.4\nsamples = 13\nvalue = [6, 15]"] ;
110 -> 111 ;
112 [label="PCA 555 <= 0.1\ngini = 0.2\nsamples = 115\nvalue = [164, 17]"] ;
110 -> 112 ;
113 [label="PCA 312 <= 0.1\ngini = 0.1\nsamples = 107\nvalue = [160, 10]"] ;
112 -> 113 ;
114 [label="gini = 0.1\nsamples = 99\nvalue = [153, 5]"] ;
113 -> 114 ;
115 [label="gini = 0.5\nsamples = 8\nvalue = [7, 5]"] ;
113 -> 115 ;
116 [label="gini = 0.5\nsamples = 8\nvalue = [4, 7]"] ;
112 -> 116 ;
117 [label="PCA 248 <= -0.1\ngini = 0.1\nsamples = 1562\nvalue = [2380, 197]"] ;
73 -> 117 ;
118 [label="PCA 345 <= 0.1\ngini = 0.4\nsamples = 80\nvalue = [100, 46]"] ;
117 -> 118 ;
119 [label="PCA 314 <= 0.0\ngini = 0.2\nsamples = 62\nvalue = [99, 16]"] ;
118 -> 119 ;
120 [label="PCA 201 <= -0.1\ngini = 0.1\nsamples = 52\nvalue = [85, 4]"] ;
119 -> 120 ;
121 [label="gini = 0.4\nsamples = 8\nvalue = [8, 3]"] ;
120 -> 121 ;
122 [label="PCA 336 <= -0.0\ngini = 0.0\nsamples = 44\nvalue = [77, 1]"] ;
120 -> 122 ;
123 [label="gini = 0.2\nsamples = 8\nvalue = [11, 1]"] ;
122 -> 123 ;
124 [label="gini = 0.0\nsamples = 36\nvalue = [66, 0]"] ;
122 -> 124 ;
125 [label="gini = 0.5\nsamples = 10\nvalue = [14, 12]"] ;
119 -> 125 ;
126 [label="PCA 424 <= -0.0\ngini = 0.1\nsamples = 18\nvalue = [1, 30]"] ;
118 -> 126 ;
127 [label="gini = 0.0\nsamples = 10\nvalue = [0, 20]"] ;
126 -> 127 ;
128 [label="gini = 0.2\nsamples = 8\nvalue = [1, 10]"] ;
126 -> 128 ;
129 [label="PCA 340 <= -0.1\ngini = 0.1\nsamples = 1482\nvalue = [2280, 151]"] ;
117 -> 129 ;
130 [label="PCA 666 <= -0.0\ngini = 0.5\nsamples = 51\nvalue = [48, 32]"] ;
129 -> 130 ;
131 [label="gini = 0.0\nsamples = 15\nvalue = [25, 0]"] ;
130 -> 131 ;
132 [label="PCA 378 <= 0.0\ngini = 0.5\nsamples = 36\nvalue = [23, 32]"] ;
130 -> 132 ;
133 [label="PCA 478 <= -0.0\ngini = 0.4\nsamples = 28\nvalue = [12, 32]"] ;
132 -> 133 ;
134 [label="gini = 0.0\nsamples = 11\nvalue = [0, 19]"] ;
133 -> 134 ;
135 [label="gini = 0.5\nsamples = 17\nvalue = [12, 13]"] ;
133 -> 135 ;
136 [label="gini = 0.0\nsamples = 8\nvalue = [11, 0]"] ;
132 -> 136 ;
137 [label="PCA 608 <= 0.1\ngini = 0.1\nsamples = 1431\nvalue = [2232, 119]"] ;
129 -> 137 ;
138 [label="PCA 588 <= -0.1\ngini = 0.1\nsamples = 1422\nvalue = [2229, 107]"] ;
137 -> 138 ;
139 [label="gini = 0.4\nsamples = 9\nvalue = [4, 10]"] ;
138 -> 139 ;
140 [label="PCA 297 <= -0.1\ngini = 0.1\nsamples = 1413\nvalue = [2225, 97]"] ;
138 -> 140 ;
141 [label="gini = 0.5\nsamples = 12\nvalue = [11, 10]"] ;
140 -> 141 ;
142 [label="gini = 0.1\nsamples = 1401\nvalue = [2214, 87]"] ;
140 -> 142 ;
143 [label="gini = 0.3\nsamples = 9\nvalue = [3, 12]"] ;
137 -> 143 ;
144 [label="PCA 3 <= -0.8\ngini = 0.4\nsamples = 16204\nvalue = [8539, 17155]"] ;
72 -> 144 ;
145 [label="PCA 1 <= 0.1\ngini = 0.2\nsamples = 893\nvalue = [1260, 177]"] ;
144 -> 145 ;
146 [label="PCA 516 <= 0.1\ngini = 0.0\nsamples = 383\nvalue = [603, 14]"] ;
145 -> 146 ;
147 [label="PCA 240 <= -0.0\ngini = 0.0\nsamples = 375\nvalue = [595, 7]"] ;
146 -> 147 ;
148 [label="PCA 484 <= 0.0\ngini = 0.2\nsamples = 51\nvalue = [75, 7]"] ;
147 -> 148 ;
149 [label="gini = 0.0\nsamples = 43\nvalue = [70, 0]"] ;
148 -> 149 ;
150 [label="gini = 0.5\nsamples = 8\nvalue = [5, 7]"] ;
148 -> 150 ;
151 [label="gini = 0.0\nsamples = 324\nvalue = [520, 0]"] ;
147 -> 151 ;
152 [label="gini = 0.5\nsamples = 8\nvalue = [8, 7]"] ;
146 -> 152 ;
153 [label="PCA 71 <= -0.0\ngini = 0.3\nsamples = 510\nvalue = [657, 163]"] ;
145 -> 153 ;
154 [label="PCA 34 <= 0.0\ngini = 0.4\nsamples = 202\nvalue = [232, 120]"] ;
153 -> 154 ;
155 [label="PCA 143 <= 0.1\ngini = 0.2\nsamples = 109\nvalue = [167, 27]"] ;
154 -> 155 ;
156 [label="PCA 16 <= -0.2\ngini = 0.2\nsamples = 101\nvalue = [162, 18]"] ;
155 -> 156 ;
157 [label="gini = 0.5\nsamples = 16\nvalue = [12, 15]"] ;
156 -> 157 ;
158 [label="gini = 0.0\nsamples = 85\nvalue = [150, 3]"] ;
156 -> 158 ;
159 [label="gini = 0.5\nsamples = 8\nvalue = [5, 9]"] ;
155 -> 159 ;
160 [label="PCA 486 <= 0.0\ngini = 0.5\nsamples = 93\nvalue = [65, 93]"] ;
154 -> 160 ;
161 [label="PCA 209 <= 0.1\ngini = 0.4\nsamples = 82\nvalue = [47, 93]"] ;
160 -> 161 ;
162 [label="gini = 0.4\nsamples = 68\nvalue = [28, 91]"] ;
161 -> 162 ;
163 [label="gini = 0.2\nsamples = 14\nvalue = [19, 2]"] ;
161 -> 163 ;
164 [label="gini = 0.0\nsamples = 11\nvalue = [18, 0]"] ;
160 -> 164 ;
165 [label="PCA 92 <= -0.1\ngini = 0.2\nsamples = 308\nvalue = [425, 43]"] ;
153 -> 165 ;
166 [label="PCA 142 <= -0.1\ngini = 0.4\nsamples = 58\nvalue = [65, 22]"] ;
165 -> 166 ;
167 [label="gini = 0.2\nsamples = 10\nvalue = [2, 12]"] ;
166 -> 167 ;
168 [label="PCA 120 <= 0.1\ngini = 0.2\nsamples = 48\nvalue = [63, 10]"] ;
166 -> 168 ;
169 [label="gini = 0.0\nsamples = 37\nvalue = [55, 0]"] ;
168 -> 169 ;
170 [label="gini = 0.5\nsamples = 11\nvalue = [8, 10]"] ;
168 -> 170 ;
171 [label="PCA 3 <= -0.9\ngini = 0.1\nsamples = 250\nvalue = [360, 21]"] ;
165 -> 171 ;
172 [label="PCA 78 <= -0.2\ngini = 0.0\nsamples = 196\nvalue = [284, 5]"] ;
171 -> 172 ;
173 [label="gini = 0.4\nsamples = 8\nvalue = [9, 3]"] ;
172 -> 173 ;
174 [label="gini = 0.0\nsamples = 188\nvalue = [275, 2]"] ;
172 -> 174 ;
175 [label="PCA 10 <= -0.2\ngini = 0.3\nsamples = 54\nvalue = [76, 16]"] ;
171 -> 175 ;
176 [label="gini = 0.5\nsamples = 11\nvalue = [8, 10]"] ;
175 -> 176 ;
177 [label="gini = 0.1\nsamples = 43\nvalue = [68, 6]"] ;
175 -> 177 ;
178 [label="PCA 4 <= 0.8\ngini = 0.4\nsamples = 15311\nvalue = [7279, 16978]"] ;
144 -> 178 ;
179 [label="PCA 567 <= 0.0\ngini = 0.4\nsamples = 14435\nvalue = [6565, 16298]"] ;
178 -> 179 ;
180 [label="PCA 529 <= 0.1\ngini = 0.4\nsamples = 13821\nvalue = [6112, 15805]"] ;
179 -> 180 ;
181 [label="PCA 646 <= -0.1\ngini = 0.4\nsamples = 13366\nvalue = [5770, 15421]"] ;
180 -> 181 ;
182 [label="PCA 664 <= 0.0\ngini = 0.5\nsamples = 242\nvalue = [210, 177]"] ;
181 -> 182 ;
183 [label="gini = 0.5\nsamples = 164\nvalue = [116, 148]"] ;
182 -> 183 ;
184 [label="gini = 0.4\nsamples = 78\nvalue = [94, 29]"] ;
182 -> 184 ;
185 [label="PCA 7 <= -0.1\ngini = 0.4\nsamples = 13124\nvalue = [5560, 15244]"] ;
181 -> 185 ;
186 [label="gini = 0.5\nsamples = 5374\nvalue = [3477, 4995]"] ;
185 -> 186 ;
187 [label="gini = 0.3\nsamples = 7750\nvalue = [2083, 10249]"] ;
185 -> 187 ;
188 [label="PCA 83 <= -0.0\ngini = 0.5\nsamples = 455\nvalue = [342, 384]"] ;
180 -> 188 ;
189 [label="PCA 351 <= 0.1\ngini = 0.4\nsamples = 180\nvalue = [97, 190]"] ;
188 -> 189 ;
190 [label="gini = 0.4\nsamples = 169\nvalue = [78, 190]"] ;
189 -> 190 ;
191 [label="gini = 0.0\nsamples = 11\nvalue = [19, 0]"] ;
189 -> 191 ;
192 [label="PCA 43 <= 0.0\ngini = 0.5\nsamples = 275\nvalue = [245, 194]"] ;
188 -> 192 ;
193 [label="gini = 0.4\nsamples = 144\nvalue = [155, 77]"] ;
192 -> 193 ;
194 [label="gini = 0.5\nsamples = 131\nvalue = [90, 117]"] ;
192 -> 194 ;
195 [label="PCA 1 <= 1.4\ngini = 0.5\nsamples = 614\nvalue = [453, 493]"] ;
179 -> 195 ;
196 [label="PCA 69 <= 0.0\ngini = 0.5\nsamples = 483\nvalue = [309, 434]"] ;
195 -> 196 ;
197 [label="PCA 175 <= -0.0\ngini = 0.5\nsamples = 270\nvalue = [214, 202]"] ;
196 -> 197 ;
198 [label="gini = 0.5\nsamples = 101\nvalue = [54, 101]"] ;
197 -> 198 ;
199 [label="gini = 0.5\nsamples = 169\nvalue = [160, 101]"] ;
197 -> 199 ;
200 [label="PCA 668 <= 0.0\ngini = 0.4\nsamples = 213\nvalue = [95, 232]"] ;
196 -> 200 ;
201 [label="gini = 0.4\nsamples = 202\nvalue = [78, 230]"] ;
200 -> 201 ;
202 [label="gini = 0.2\nsamples = 11\nvalue = [17, 2]"] ;
200 -> 202 ;
203 [label="PCA 414 <= 0.0\ngini = 0.4\nsamples = 131\nvalue = [144, 59]"] ;
195 -> 203 ;
204 [label="PCA 71 <= 0.1\ngini = 0.3\nsamples = 80\nvalue = [107, 25]"] ;
203 -> 204 ;
205 [label="gini = 0.2\nsamples = 66\nvalue = [98, 11]"] ;
204 -> 205 ;
206 [label="gini = 0.5\nsamples = 14\nvalue = [9, 14]"] ;
204 -> 206 ;
207 [label="PCA 255 <= 0.0\ngini = 0.5\nsamples = 51\nvalue = [37, 34]"] ;
203 -> 207 ;
208 [label="gini = 0.4\nsamples = 28\nvalue = [33, 11]"] ;
207 -> 208 ;
209 [label="gini = 0.3\nsamples = 23\nvalue = [4, 23]"] ;
207 -> 209 ;
210 [label="PCA 3 <= -0.1\ngini = 0.5\nsamples = 876\nvalue = [714, 680]"] ;
178 -> 210 ;
211 [label="PCA 76 <= -0.1\ngini = 0.3\nsamples = 332\nvalue = [82, 437]"] ;
210 -> 211 ;
212 [label="PCA 159 <= -0.0\ngini = 0.5\nsamples = 60\nvalue = [41, 53]"] ;
211 -> 212 ;
213 [label="PCA 18 <= 0.1\ngini = 0.4\nsamples = 31\nvalue = [33, 13]"] ;
212 -> 213 ;
214 [label="gini = 0.5\nsamples = 15\nvalue = [11, 13]"] ;
213 -> 214 ;
215 [label="gini = 0.0\nsamples = 16\nvalue = [22, 0]"] ;
213 -> 215 ;
216 [label="PCA 370 <= 0.0\ngini = 0.3\nsamples = 29\nvalue = [8, 40]"] ;
212 -> 216 ;
217 [label="gini = 0.1\nsamples = 19\nvalue = [1, 31]"] ;
216 -> 217 ;
218 [label="gini = 0.5\nsamples = 10\nvalue = [7, 9]"] ;
216 -> 218 ;
219 [label="PCA 343 <= -0.1\ngini = 0.2\nsamples = 272\nvalue = [41, 384]"] ;
211 -> 219 ;
220 [label="gini = 0.5\nsamples = 9\nvalue = [9, 5]"] ;
219 -> 220 ;
221 [label="PCA 196 <= 0.1\ngini = 0.1\nsamples = 263\nvalue = [32, 379]"] ;
219 -> 221 ;
222 [label="gini = 0.1\nsamples = 253\nvalue = [22, 371]"] ;
221 -> 222 ;
223 [label="gini = 0.5\nsamples = 10\nvalue = [10, 8]"] ;
221 -> 223 ;
224 [label="PCA 8 <= 0.4\ngini = 0.4\nsamples = 544\nvalue = [632, 243]"] ;
210 -> 224 ;
225 [label="PCA 158 <= 0.0\ngini = 0.4\nsamples = 498\nvalue = [613, 183]"] ;
224 -> 225 ;
226 [label="PCA 528 <= 0.1\ngini = 0.3\nsamples = 343\nvalue = [462, 83]"] ;
225 -> 226 ;
227 [label="gini = 0.2\nsamples = 324\nvalue = [450, 64]"] ;
226 -> 227 ;
228 [label="gini = 0.5\nsamples = 19\nvalue = [12, 19]"] ;
226 -> 228 ;
229 [label="PCA 266 <= 0.0\ngini = 0.5\nsamples = 155\nvalue = [151, 100]"] ;
225 -> 229 ;
230 [label="gini = 0.4\nsamples = 81\nvalue = [102, 32]"] ;
229 -> 230 ;
231 [label="gini = 0.5\nsamples = 74\nvalue = [49, 68]"] ;
229 -> 231 ;
232 [label="PCA 41 <= 0.1\ngini = 0.4\nsamples = 46\nvalue = [19, 60]"] ;
224 -> 232 ;
233 [label="PCA 553 <= 0.0\ngini = 0.1\nsamples = 32\nvalue = [2, 52]"] ;
232 -> 233 ;
234 [label="gini = 0.0\nsamples = 24\nvalue = [0, 43]"] ;
233 -> 234 ;
235 [label="gini = 0.3\nsamples = 8\nvalue = [2, 9]"] ;
233 -> 235 ;
236 [label="gini = 0.4\nsamples = 14\nvalue = [17, 8]"] ;
232 -> 236 ;
237 [label="PCA 11 <= -0.3\ngini = 0.5\nsamples = 8166\nvalue = [8409, 4480]"] ;
71 -> 237 ;
238 [label="PCA 495 <= 0.1\ngini = 0.2\nsamples = 786\nvalue = [1126, 124]"] ;
237 -> 238 ;
239 [label="PCA 199 <= -0.0\ngini = 0.2\nsamples = 760\nvalue = [1107, 108]"] ;
238 -> 239 ;
240 [label="PCA 271 <= 0.0\ngini = 0.4\nsamples = 157\nvalue = [189, 58]"] ;
239 -> 240 ;
241 [label="PCA 652 <= 0.0\ngini = 0.2\nsamples = 107\nvalue = [152, 21]"] ;
240 -> 241 ;
242 [label="PCA 378 <= -0.0\ngini = 0.1\nsamples = 86\nvalue = [136, 7]"] ;
241 -> 242 ;
243 [label="gini = 0.5\nsamples = 8\nvalue = [5, 5]"] ;
242 -> 243 ;
244 [label="PCA 142 <= -0.1\ngini = 0.0\nsamples = 78\nvalue = [131, 2]"] ;
242 -> 244 ;
245 [label="gini = 0.2\nsamples = 8\nvalue = [12, 2]"] ;
244 -> 245 ;
246 [label="gini = 0.0\nsamples = 70\nvalue = [119, 0]"] ;
244 -> 246 ;
247 [label="PCA 480 <= 0.0\ngini = 0.5\nsamples = 21\nvalue = [16, 14]"] ;
241 -> 247 ;
248 [label="gini = 0.3\nsamples = 12\nvalue = [13, 3]"] ;
247 -> 248 ;
249 [label="gini = 0.3\nsamples = 9\nvalue = [3, 11]"] ;
247 -> 249 ;
250 [label="PCA 590 <= 0.0\ngini = 0.5\nsamples = 50\nvalue = [37, 37]"] ;
240 -> 250 ;
251 [label="gini = 0.1\nsamples = 11\nvalue = [20, 1]"] ;
250 -> 251 ;
252 [label="Emb magnitude <= 12.8\ngini = 0.4\nsamples = 39\nvalue = [17, 36]"] ;
250 -> 252 ;
253 [label="PCA 3 <= -0.3\ngini = 0.3\nsamples = 31\nvalue = [7, 36]"] ;
252 -> 253 ;
254 [label="gini = 0.5\nsamples = 8\nvalue = [7, 4]"] ;
253 -> 254 ;
255 [label="gini = 0.0\nsamples = 23\nvalue = [0, 32]"] ;
253 -> 255 ;
256 [label="gini = 0.0\nsamples = 8\nvalue = [10, 0]"] ;
252 -> 256 ;
257 [label="PCA 52 <= -0.3\ngini = 0.1\nsamples = 603\nvalue = [918, 50]"] ;
239 -> 257 ;
258 [label="gini = 0.4\nsamples = 8\nvalue = [3, 6]"] ;
257 -> 258 ;
259 [label="PCA 598 <= -0.0\ngini = 0.1\nsamples = 595\nvalue = [915, 44]"] ;
257 -> 259 ;
260 [label="PCA 189 <= -0.0\ngini = 0.3\nsamples = 33\nvalue = [44, 12]"] ;
259 -> 260 ;
261 [label="gini = 0.5\nsamples = 12\nvalue = [9, 11]"] ;
260 -> 261 ;
262 [label="PCA 644 <= -0.0\ngini = 0.1\nsamples = 21\nvalue = [35, 1]"] ;
260 -> 262 ;
263 [label="gini = 0.2\nsamples = 8\nvalue = [9, 1]"] ;
262 -> 263 ;
264 [label="gini = 0.0\nsamples = 13\nvalue = [26, 0]"] ;
262 -> 264 ;
265 [label="PCA 6 <= 0.2\ngini = 0.1\nsamples = 562\nvalue = [871, 32]"] ;
259 -> 265 ;
266 [label="PCA 116 <= 0.1\ngini = 0.3\nsamples = 37\nvalue = [45, 12]"] ;
265 -> 266 ;
267 [label="gini = 0.0\nsamples = 27\nvalue = [40, 1]"] ;
266 -> 267 ;
268 [label="gini = 0.4\nsamples = 10\nvalue = [5, 11]"] ;
266 -> 268 ;
269 [label="PCA 556 <= 0.1\ngini = 0.0\nsamples = 525\nvalue = [826, 20]"] ;
265 -> 269 ;
270 [label="gini = 0.0\nsamples = 517\nvalue = [818, 16]"] ;
269 -> 270 ;
271 [label="gini = 0.4\nsamples = 8\nvalue = [8, 4]"] ;
269 -> 271 ;
272 [label="PCA 60 <= -0.0\ngini = 0.5\nsamples = 26\nvalue = [19, 16]"] ;
238 -> 272 ;
273 [label="gini = 0.4\nsamples = 15\nvalue = [7, 16]"] ;
272 -> 273 ;
274 [label="gini = 0.0\nsamples = 11\nvalue = [12, 0]"] ;
272 -> 274 ;
275 [label="PCA 12 <= 0.4\ngini = 0.5\nsamples = 7380\nvalue = [7283, 4356]"] ;
237 -> 275 ;
276 [label="PCA 3 <= -0.7\ngini = 0.5\nsamples = 6826\nvalue = [6886, 3861]"] ;
275 -> 276 ;
277 [label="PCA 130 <= 0.2\ngini = 0.1\nsamples = 663\nvalue = [1021, 34]"] ;
276 -> 277 ;
278 [label="PCA 79 <= -0.1\ngini = 0.0\nsamples = 655\nvalue = [1015, 26]"] ;
277 -> 278 ;
279 [label="PCA 8 <= 0.3\ngini = 0.3\nsamples = 56\nvalue = [77, 16]"] ;
278 -> 279 ;
280 [label="PCA 681 <= 0.0\ngini = 0.1\nsamples = 45\nvalue = [72, 5]"] ;
279 -> 280 ;
281 [label="gini = 0.0\nsamples = 37\nvalue = [66, 0]"] ;
280 -> 281 ;
282 [label="gini = 0.5\nsamples = 8\nvalue = [6, 5]"] ;
280 -> 282 ;
283 [label="gini = 0.4\nsamples = 11\nvalue = [5, 11]"] ;
279 -> 283 ;
284 [label="PCA 455 <= -0.1\ngini = 0.0\nsamples = 599\nvalue = [938, 10]"] ;
278 -> 284 ;
285 [label="gini = 0.4\nsamples = 8\nvalue = [8, 3]"] ;
284 -> 285 ;
286 [label="PCA 386 <= -0.1\ngini = 0.0\nsamples = 591\nvalue = [930, 7]"] ;
284 -> 286 ;
287 [label="gini = 0.3\nsamples = 12\nvalue = [14, 3]"] ;
286 -> 287 ;
288 [label="gini = 0.0\nsamples = 579\nvalue = [916, 4]"] ;
286 -> 288 ;
289 [label="gini = 0.5\nsamples = 8\nvalue = [6, 8]"] ;
277 -> 289 ;
290 [label="PCA 28 <= 0.2\ngini = 0.5\nsamples = 6163\nvalue = [5865, 3827]"] ;
276 -> 290 ;
291 [label="PCA 10 <= 0.2\ngini = 0.5\nsamples = 5333\nvalue = [5237, 3157]"] ;
290 -> 291 ;
292 [label="PCA 41 <= -0.1\ngini = 0.5\nsamples = 3835\nvalue = [3460, 2582]"] ;
291 -> 292 ;
293 [label="PCA 75 <= 0.2\ngini = 0.4\nsamples = 636\nvalue = [726, 236]"] ;
292 -> 293 ;
294 [label="gini = 0.4\nsamples = 614\nvalue = [719, 211]"] ;
293 -> 294 ;
295 [label="gini = 0.3\nsamples = 22\nvalue = [7, 25]"] ;
293 -> 295 ;
296 [label="PCA 38 <= -0.2\ngini = 0.5\nsamples = 3199\nvalue = [2734, 2346]"] ;
292 -> 296 ;
297 [label="gini = 0.4\nsamples = 328\nvalue = [370, 146]"] ;
296 -> 297 ;
298 [label="gini = 0.5\nsamples = 2871\nvalue = [2364, 2200]"] ;
296 -> 298 ;
299 [label="PCA 243 <= -0.0\ngini = 0.4\nsamples = 1498\nvalue = [1777, 575]"] ;
291 -> 299 ;
300 [label="PCA 249 <= 0.0\ngini = 0.5\nsamples = 416\nvalue = [418, 233]"] ;
299 -> 300 ;
301 [label="gini = 0.5\nsamples = 242\nvalue = [221, 189]"] ;
300 -> 301 ;
302 [label="gini = 0.3\nsamples = 174\nvalue = [197, 44]"] ;
300 -> 302 ;
303 [label="PCA 159 <= 0.1\ngini = 0.3\nsamples = 1082\nvalue = [1359, 342]"] ;
299 -> 303 ;
304 [label="gini = 0.3\nsamples = 1038\nvalue = [1333, 300]"] ;
303 -> 304 ;
305 [label="gini = 0.5\nsamples = 44\nvalue = [26, 42]"] ;
303 -> 305 ;
306 [label="PCA 231 <= 0.1\ngini = 0.5\nsamples = 830\nvalue = [628, 670]"] ;
290 -> 306 ;
307 [label="PCA 490 <= -0.0\ngini = 0.5\nsamples = 797\nvalue = [626, 617]"] ;
306 -> 307 ;
308 [label="PCA 319 <= 0.0\ngini = 0.5\nsamples = 275\nvalue = [157, 274]"] ;
307 -> 308 ;
309 [label="gini = 0.5\nsamples = 153\nvalue = [117, 124]"] ;
308 -> 309 ;
310 [label="gini = 0.3\nsamples = 122\nvalue = [40, 150]"] ;
308 -> 310 ;
311 [label="PCA 76 <= -0.0\ngini = 0.5\nsamples = 522\nvalue = [469, 343]"] ;
307 -> 311 ;
312 [label="gini = 0.5\nsamples = 216\nvalue = [146, 197]"] ;
311 -> 312 ;
313 [label="gini = 0.4\nsamples = 306\nvalue = [323, 146]"] ;
311 -> 313 ;
314 [label="PCA 286 <= 0.1\ngini = 0.1\nsamples = 33\nvalue = [2, 53]"] ;
306 -> 314 ;
315 [label="gini = 0.0\nsamples = 25\nvalue = [0, 41]"] ;
314 -> 315 ;
316 [label="gini = 0.2\nsamples = 8\nvalue = [2, 12]"] ;
314 -> 316 ;
317 [label="PCA 351 <= -0.0\ngini = 0.5\nsamples = 554\nvalue = [397, 495]"] ;
275 -> 317 ;
318 [label="PCA 157 <= 0.1\ngini = 0.4\nsamples = 124\nvalue = [50, 134]"] ;
317 -> 318 ;
319 [label="Emb magnitude <= 13.2\ngini = 0.4\nsamples = 115\nvalue = [40, 130]"] ;
318 -> 319 ;
320 [label="PCA 284 <= -0.1\ngini = 0.2\nsamples = 100\nvalue = [18, 130]"] ;
319 -> 320 ;
321 [label="gini = 0.5\nsamples = 8\nvalue = [5, 4]"] ;
320 -> 321 ;
322 [label="PCA 449 <= 0.0\ngini = 0.2\nsamples = 92\nvalue = [13, 126]"] ;
320 -> 322 ;
323 [label="gini = 0.1\nsamples = 83\nvalue = [7, 120]"] ;
322 -> 323 ;
324 [label="gini = 0.5\nsamples = 9\nvalue = [6, 6]"] ;
322 -> 324 ;
325 [label="gini = 0.0\nsamples = 15\nvalue = [22, 0]"] ;
319 -> 325 ;
326 [label="gini = 0.4\nsamples = 9\nvalue = [10, 4]"] ;
318 -> 326 ;
327 [label="PCA 366 <= 0.0\ngini = 0.5\nsamples = 430\nvalue = [347, 361]"] ;
317 -> 327 ;
328 [label="PCA 18 <= 0.1\ngini = 0.5\nsamples = 303\nvalue = [285, 216]"] ;
327 -> 328 ;
329 [label="PCA 372 <= -0.0\ngini = 0.4\nsamples = 224\nvalue = [258, 115]"] ;
328 -> 329 ;
330 [label="PCA 306 <= -0.0\ngini = 0.5\nsamples = 69\nvalue = [43, 70]"] ;
329 -> 330 ;
331 [label="gini = 0.4\nsamples = 40\nvalue = [16, 54]"] ;
330 -> 331 ;
332 [label="gini = 0.5\nsamples = 29\nvalue = [27, 16]"] ;
330 -> 332 ;
333 [label="PCA 78 <= -0.1\ngini = 0.3\nsamples = 155\nvalue = [215, 45]"] ;
329 -> 333 ;
334 [label="gini = 0.4\nsamples = 17\nvalue = [8, 19]"] ;
333 -> 334 ;
335 [label="gini = 0.2\nsamples = 138\nvalue = [207, 26]"] ;
333 -> 335 ;
336 [label="PCA 84 <= 0.0\ngini = 0.3\nsamples = 79\nvalue = [27, 101]"] ;
328 -> 336 ;
337 [label="PCA 65 <= -0.1\ngini = 0.2\nsamples = 62\nvalue = [9, 90]"] ;
336 -> 337 ;
338 [label="gini = 0.5\nsamples = 9\nvalue = [6, 10]"] ;
337 -> 338 ;
339 [label="gini = 0.1\nsamples = 53\nvalue = [3, 80]"] ;
337 -> 339 ;
340 [label="PCA 27 <= 0.1\ngini = 0.5\nsamples = 17\nvalue = [18, 11]"] ;
336 -> 340 ;
341 [label="gini = 0.0\nsamples = 9\nvalue = [18, 0]"] ;
340 -> 341 ;
342 [label="gini = 0.0\nsamples = 8\nvalue = [0, 11]"] ;
340 -> 342 ;
343 [label="PCA 379 <= 0.0\ngini = 0.4\nsamples = 127\nvalue = [62, 145]"] ;
327 -> 343 ;
344 [label="PCA 696 <= -0.0\ngini = 0.3\nsamples = 109\nvalue = [38, 142]"] ;
343 -> 344 ;
345 [label="gini = 0.1\nsamples = 8\nvalue = [12, 1]"] ;
344 -> 345 ;
346 [label="PCA 194 <= 0.1\ngini = 0.3\nsamples = 101\nvalue = [26, 141]"] ;
344 -> 346 ;
347 [label="gini = 0.2\nsamples = 85\nvalue = [13, 129]"] ;
346 -> 347 ;
348 [label="gini = 0.5\nsamples = 16\nvalue = [13, 12]"] ;
346 -> 348 ;
349 [label="PCA 363 <= -0.0\ngini = 0.2\nsamples = 18\nvalue = [24, 3]"] ;
343 -> 349 ;
350 [label="gini = 0.4\nsamples = 8\nvalue = [8, 3]"] ;
349 -> 350 ;
351 [label="gini = 0.0\nsamples = 10\nvalue = [16, 0]"] ;
349 -> 351 ;
352 [label="PCA 68 <= -0.2\ngini = 0.5\nsamples = 3109\nvalue = [2967, 1812]"] ;
0 -> 352 [labeldistance=2.5, labelangle=-45, headlabel="False"] ;
353 [label="PCA 111 <= 0.0\ngini = 0.2\nsamples = 213\nvalue = [278, 45]"] ;
352 -> 353 ;
354 [label="PCA 44 <= -0.1\ngini = 0.4\nsamples = 109\nvalue = [121, 42]"] ;
353 -> 354 ;
355 [label="PCA 77 <= -0.0\ngini = 0.5\nsamples = 27\nvalue = [14, 22]"] ;
354 -> 355 ;
356 [label="gini = 0.0\nsamples = 8\nvalue = [12, 0]"] ;
355 -> 356 ;
357 [label="PCA 545 <= -0.0\ngini = 0.2\nsamples = 19\nvalue = [2, 22]"] ;
355 -> 357 ;
358 [label="gini = 0.0\nsamples = 11\nvalue = [0, 15]"] ;
357 -> 358 ;
359 [label="gini = 0.3\nsamples = 8\nvalue = [2, 7]"] ;
357 -> 359 ;
360 [label="PCA 629 <= -0.0\ngini = 0.3\nsamples = 82\nvalue = [107, 20]"] ;
354 -> 360 ;
361 [label="gini = 0.0\nsamples = 43\nvalue = [70, 0]"] ;
360 -> 361 ;
362 [label="PCA 159 <= 0.1\ngini = 0.5\nsamples = 39\nvalue = [37, 20]"] ;
360 -> 362 ;
363 [label="PCA 21 <= 0.1\ngini = 0.3\nsamples = 28\nvalue = [35, 8]"] ;
362 -> 363 ;
364 [label="PCA 471 <= 0.0\ngini = 0.1\nsamples = 19\nvalue = [31, 2]"] ;
363 -> 364 ;
365 [label="gini = 0.3\nsamples = 8\nvalue = [9, 2]"] ;
364 -> 365 ;
366 [label="gini = 0.0\nsamples = 11\nvalue = [22, 0]"] ;
364 -> 366 ;
367 [label="gini = 0.5\nsamples = 9\nvalue = [4, 6]"] ;
363 -> 367 ;
368 [label="gini = 0.2\nsamples = 11\nvalue = [2, 12]"] ;
362 -> 368 ;
369 [label="PCA 539 <= -0.0\ngini = 0.0\nsamples = 104\nvalue = [157, 3]"] ;
353 -> 369 ;
370 [label="gini = 0.3\nsamples = 8\nvalue = [8, 2]"] ;
369 -> 370 ;
371 [label="PCA 53 <= -0.2\ngini = 0.0\nsamples = 96\nvalue = [149, 1]"] ;
369 -> 371 ;
372 [label="gini = 0.2\nsamples = 8\nvalue = [11, 1]"] ;
371 -> 372 ;
373 [label="gini = 0.0\nsamples = 88\nvalue = [138, 0]"] ;
371 -> 373 ;
374 [label="PCA 38 <= 0.1\ngini = 0.5\nsamples = 2896\nvalue = [2689, 1767]"] ;
352 -> 374 ;
375 [label="PCA 547 <= 0.0\ngini = 0.5\nsamples = 2098\nvalue = [1830, 1409]"] ;
374 -> 375 ;
376 [label="PCA 3 <= 0.7\ngini = 0.5\nsamples = 1889\nvalue = [1586, 1328]"] ;
375 -> 376 ;
377 [label="PCA 17 <= -0.3\ngini = 0.5\nsamples = 1617\nvalue = [1221, 1290]"] ;
376 -> 377 ;
378 [label="PCA 575 <= -0.0\ngini = 0.3\nsamples = 220\nvalue = [270, 62]"] ;
377 -> 378 ;
379 [label="PCA 312 <= 0.1\ngini = 0.1\nsamples = 104\nvalue = [145, 8]"] ;
378 -> 379 ;
380 [label="PCA 48 <= 0.1\ngini = 0.0\nsamples = 96\nvalue = [140, 3]"] ;
379 -> 380 ;
381 [label="gini = 0.0\nsamples = 81\nvalue = [122, 0]"] ;
380 -> 381 ;
382 [label="gini = 0.2\nsamples = 15\nvalue = [18, 3]"] ;
380 -> 382 ;
383 [label="gini = 0.5\nsamples = 8\nvalue = [5, 5]"] ;
379 -> 383 ;
384 [label="PCA 374 <= -0.0\ngini = 0.4\nsamples = 116\nvalue = [125, 54]"] ;
378 -> 384 ;
385 [label="PCA 552 <= -0.0\ngini = 0.5\nsamples = 42\nvalue = [27, 36]"] ;
384 -> 385 ;
386 [label="PCA 220 <= 0.0\ngini = 0.2\nsamples = 22\nvalue = [5, 31]"] ;
385 -> 386 ;
387 [label="gini = 0.0\nsamples = 14\nvalue = [0, 26]"] ;
386 -> 387 ;
388 [label="gini = 0.5\nsamples = 8\nvalue = [5, 5]"] ;
386 -> 388 ;
389 [label="PCA 644 <= 0.0\ngini = 0.3\nsamples = 20\nvalue = [22, 5]"] ;
385 -> 389 ;
390 [label="gini = 0.0\nsamples = 12\nvalue = [17, 0]"] ;
389 -> 390 ;
391 [label="gini = 0.5\nsamples = 8\nvalue = [5, 5]"] ;
389 -> 391 ;
392 [label="PCA 401 <= -0.1\ngini = 0.3\nsamples = 74\nvalue = [98, 18]"] ;
384 -> 392 ;
393 [label="gini = 0.5\nsamples = 9\nvalue = [5, 9]"] ;
392 -> 393 ;
394 [label="PCA 26 <= 0.2\ngini = 0.2\nsamples = 65\nvalue = [93, 9]"] ;
392 -> 394 ;
395 [label="gini = 0.0\nsamples = 53\nvalue = [88, 0]"] ;
394 -> 395 ;
396 [label="gini = 0.5\nsamples = 12\nvalue = [5, 9]"] ;
394 -> 396 ;
397 [label="PCA 152 <= 0.0\ngini = 0.5\nsamples = 1397\nvalue = [951, 1228]"] ;
377 -> 397 ;
398 [label="PCA 531 <= -0.0\ngini = 0.5\nsamples = 685\nvalue = [557, 528]"] ;
397 -> 398 ;
399 [label="PCA 477 <= -0.0\ngini = 0.4\nsamples = 168\nvalue = [180, 76]"] ;
398 -> 399 ;
400 [label="PCA 297 <= -0.0\ngini = 0.0\nsamples = 39\nvalue = [60, 1]"] ;
399 -> 400 ;
401 [label="gini = 0.2\nsamples = 8\nvalue = [9, 1]"] ;
400 -> 401 ;
402 [label="gini = 0.0\nsamples = 31\nvalue = [51, 0]"] ;
400 -> 402 ;
403 [label="PCA 692 <= 0.0\ngini = 0.5\nsamples = 129\nvalue = [120, 75]"] ;
399 -> 403 ;
404 [label="gini = 0.4\nsamples = 101\nvalue = [110, 44]"] ;
403 -> 404 ;
405 [label="gini = 0.4\nsamples = 28\nvalue = [10, 31]"] ;
403 -> 405 ;
406 [label="PCA 637 <= 0.0\ngini = 0.5\nsamples = 517\nvalue = [377, 452]"] ;
398 -> 406 ;
407 [label="PCA 672 <= 0.0\ngini = 0.5\nsamples = 369\nvalue = [227, 362]"] ;
406 -> 407 ;
408 [label="gini = 0.4\nsamples = 197\nvalue = [85, 231]"] ;
407 -> 408 ;
409 [label="gini = 0.5\nsamples = 172\nvalue = [142, 131]"] ;
407 -> 409 ;
410 [label="PCA 54 <= 0.1\ngini = 0.5\nsamples = 148\nvalue = [150, 90]"] ;
406 -> 410 ;
411 [label="gini = 0.4\nsamples = 119\nvalue = [140, 61]"] ;
410 -> 411 ;
412 [label="gini = 0.4\nsamples = 29\nvalue = [10, 29]"] ;
410 -> 412 ;
413 [label="PCA 8 <= 0.2\ngini = 0.5\nsamples = 712\nvalue = [394, 700]"] ;
397 -> 413 ;
414 [label="PCA 109 <= 0.0\ngini = 0.5\nsamples = 457\nvalue = [306, 394]"] ;
413 -> 414 ;
415 [label="PCA 155 <= -0.1\ngini = 0.5\nsamples = 277\nvalue = [151, 274]"] ;
414 -> 415 ;
416 [label="gini = 0.4\nsamples = 29\nvalue = [40, 12]"] ;
415 -> 416 ;
417 [label="gini = 0.4\nsamples = 248\nvalue = [111, 262]"] ;
415 -> 417 ;
418 [label="PCA 195 <= 0.0\ngini = 0.5\nsamples = 180\nvalue = [155, 120]"] ;
414 -> 418 ;
419 [label="gini = 0.4\nsamples = 108\nvalue = [117, 39]"] ;
418 -> 419 ;
420 [label="gini = 0.4\nsamples = 72\nvalue = [38, 81]"] ;
418 -> 420 ;
421 [label="PCA 16 <= 0.2\ngini = 0.3\nsamples = 255\nvalue = [88, 306]"] ;
413 -> 421 ;
422 [label="PCA 158 <= 0.1\ngini = 0.3\nsamples = 210\nvalue = [49, 273]"] ;
421 -> 422 ;
423 [label="gini = 0.2\nsamples = 199\nvalue = [33, 269]"] ;
422 -> 423 ;
424 [label="gini = 0.3\nsamples = 11\nvalue = [16, 4]"] ;
422 -> 424 ;
425 [label="PCA 395 <= 0.0\ngini = 0.5\nsamples = 45\nvalue = [39, 33]"] ;
421 -> 425 ;
426 [label="gini = 0.4\nsamples = 28\nvalue = [10, 31]"] ;
425 -> 426 ;
427 [label="gini = 0.1\nsamples = 17\nvalue = [29, 2]"] ;
425 -> 427 ;
428 [label="PCA 423 <= -0.1\ngini = 0.2\nsamples = 272\nvalue = [365, 38]"] ;
376 -> 428 ;
429 [label="PCA 548 <= -0.0\ngini = 0.5\nsamples = 16\nvalue = [11, 11]"] ;
428 -> 429 ;
430 [label="gini = 0.3\nsamples = 8\nvalue = [2, 9]"] ;
429 -> 430 ;
431 [label="gini = 0.3\nsamples = 8\nvalue = [9, 2]"] ;
429 -> 431 ;
432 [label="Mass <= 41273.1\ngini = 0.1\nsamples = 256\nvalue = [354, 27]"] ;
428 -> 432 ;
433 [label="PCA 20 <= 0.3\ngini = 0.0\nsamples = 162\nvalue = [239, 1]"] ;
432 -> 433 ;
434 [label="gini = 0.0\nsamples = 146\nvalue = [223, 0]"] ;
433 -> 434 ;
435 [label="PCA 527 <= 0.0\ngini = 0.1\nsamples = 16\nvalue = [16, 1]"] ;
433 -> 435 ;
436 [label="gini = 0.0\nsamples = 8\nvalue = [9, 0]"] ;
435 -> 436 ;
437 [label="gini = 0.2\nsamples = 8\nvalue = [7, 1]"] ;
435 -> 437 ;
438 [label="PCA 318 <= 0.0\ngini = 0.3\nsamples = 94\nvalue = [115, 26]"] ;
432 -> 438 ;
439 [label="PCA 389 <= -0.0\ngini = 0.1\nsamples = 68\nvalue = [100, 7]"] ;
438 -> 439 ;
440 [label="gini = 0.5\nsamples = 8\nvalue = [5, 7]"] ;
439 -> 440 ;
441 [label="gini = 0.0\nsamples = 60\nvalue = [95, 0]"] ;
439 -> 441 ;
442 [label="PCA 29 <= -0.1\ngini = 0.5\nsamples = 26\nvalue = [15, 19]"] ;
438 -> 442 ;
443 [label="gini = 0.2\nsamples = 13\nvalue = [2, 16]"] ;
442 -> 443 ;
444 [label="gini = 0.3\nsamples = 13\nvalue = [13, 3]"] ;
442 -> 444 ;
445 [label="PCA 105 <= 0.2\ngini = 0.4\nsamples = 209\nvalue = [244, 81]"] ;
375 -> 445 ;
446 [label="PCA 478 <= -0.1\ngini = 0.3\nsamples = 199\nvalue = [242, 64]"] ;
445 -> 446 ;
447 [label="gini = 0.3\nsamples = 8\nvalue = [2, 9]"] ;
446 -> 447 ;
448 [label="PCA 683 <= -0.0\ngini = 0.3\nsamples = 191\nvalue = [240, 55]"] ;
446 -> 448 ;
449 [label="PCA 449 <= -0.0\ngini = 0.5\nsamples = 34\nvalue = [27, 27]"] ;
448 -> 449 ;
450 [label="gini = 0.4\nsamples = 15\nvalue = [7, 21]"] ;
449 -> 450 ;
451 [label="PCA 426 <= 0.0\ngini = 0.4\nsamples = 19\nvalue = [20, 6]"] ;
449 -> 451 ;
452 [label="gini = 0.0\nsamples = 10\nvalue = [16, 0]"] ;
451 -> 452 ;
453 [label="gini = 0.5\nsamples = 9\nvalue = [4, 6]"] ;
451 -> 453 ;
454 [label="PCA 45 <= -0.0\ngini = 0.2\nsamples = 157\nvalue = [213, 28]"] ;
448 -> 454 ;
455 [label="PCA 162 <= -0.0\ngini = 0.3\nsamples = 67\nvalue = [73, 21]"] ;
454 -> 455 ;
456 [label="gini = 0.0\nsamples = 19\nvalue = [28, 0]"] ;
455 -> 456 ;
457 [label="PCA 614 <= -0.0\ngini = 0.4\nsamples = 48\nvalue = [45, 21]"] ;
455 -> 457 ;
458 [label="gini = 0.5\nsamples = 26\nvalue = [16, 19]"] ;
457 -> 458 ;
459 [label="gini = 0.1\nsamples = 22\nvalue = [29, 2]"] ;
457 -> 459 ;
460 [label="PCA 29 <= -0.2\ngini = 0.1\nsamples = 90\nvalue = [140, 7]"] ;
454 -> 460 ;
461 [label="gini = 0.5\nsamples = 12\nvalue = [11, 7]"] ;
460 -> 461 ;
462 [label="gini = 0.0\nsamples = 78\nvalue = [129, 0]"] ;
460 -> 462 ;
463 [label="gini = 0.2\nsamples = 10\nvalue = [2, 17]"] ;
445 -> 463 ;
464 [label="PCA 514 <= 0.0\ngini = 0.4\nsamples = 798\nvalue = [859, 358]"] ;
374 -> 464 ;
465 [label="PCA 67 <= -0.1\ngini = 0.4\nsamples = 678\nvalue = [686, 338]"] ;
464 -> 465 ;
466 [label="PCA 387 <= 0.0\ngini = 0.2\nsamples = 131\nvalue = [172, 26]"] ;
465 -> 466 ;
467 [label="PCA 672 <= -0.0\ngini = 0.1\nsamples = 81\nvalue = [115, 6]"] ;
466 -> 467 ;
468 [label="PCA 574 <= -0.0\ngini = 0.4\nsamples = 16\nvalue = [16, 5]"] ;
467 -> 468 ;
469 [label="gini = 0.5\nsamples = 8\nvalue = [5, 5]"] ;
468 -> 469 ;
470 [label="gini = 0.0\nsamples = 8\nvalue = [11, 0]"] ;
468 -> 470 ;
471 [label="PCA 615 <= -0.0\ngini = 0.0\nsamples = 65\nvalue = [99, 1]"] ;
467 -> 471 ;
472 [label="gini = 0.2\nsamples = 8\nvalue = [10, 1]"] ;
471 -> 472 ;
473 [label="gini = 0.0\nsamples = 57\nvalue = [89, 0]"] ;
471 -> 473 ;
474 [label="PCA 524 <= -0.0\ngini = 0.4\nsamples = 50\nvalue = [57, 20]"] ;
466 -> 474 ;
475 [label="gini = 0.4\nsamples = 8\nvalue = [5, 10]"] ;
474 -> 475 ;
476 [label="PCA 259 <= -0.0\ngini = 0.3\nsamples = 42\nvalue = [52, 10]"] ;
474 -> 476 ;
477 [label="gini = 0.5\nsamples = 15\nvalue = [9, 10]"] ;
476 -> 477 ;
478 [label="gini = 0.0\nsamples = 27\nvalue = [43, 0]"] ;
476 -> 478 ;
479 [label="PCA 3 <= -0.4\ngini = 0.5\nsamples = 547\nvalue = [514, 312]"] ;
465 -> 479 ;
480 [label="PCA 8 <= 0.3\ngini = 0.1\nsamples = 109\nvalue = [159, 10]"] ;
479 -> 480 ;
481 [label="PCA 409 <= 0.1\ngini = 0.0\nsamples = 94\nvalue = [150, 1]"] ;
480 -> 481 ;
482 [label="gini = 0.0\nsamples = 86\nvalue = [142, 0]"] ;
481 -> 482 ;
483 [label="gini = 0.2\nsamples = 8\nvalue = [8, 1]"] ;
481 -> 483 ;
484 [label="gini = 0.5\nsamples = 15\nvalue = [9, 9]"] ;
480 -> 484 ;
485 [label="PCA 573 <= 0.0\ngini = 0.5\nsamples = 438\nvalue = [355, 302]"] ;
479 -> 485 ;
486 [label="PCA 56 <= 0.1\ngini = 0.5\nsamples = 404\nvalue = [310, 297]"] ;
485 -> 486 ;
487 [label="PCA 6 <= 0.2\ngini = 0.5\nsamples = 303\nvalue = [206, 257]"] ;
486 -> 487 ;
488 [label="PCA 14 <= 0.3\ngini = 0.4\nsamples = 208\nvalue = [105, 207]"] ;
487 -> 488 ;
489 [label="gini = 0.4\nsamples = 197\nvalue = [93, 207]"] ;
488 -> 489 ;
490 [label="gini = 0.0\nsamples = 11\nvalue = [12, 0]"] ;
488 -> 490 ;
491 [label="PCA 679 <= 0.0\ngini = 0.4\nsamples = 95\nvalue = [101, 50]"] ;
487 -> 491 ;
492 [label="gini = 0.4\nsamples = 84\nvalue = [100, 35]"] ;
491 -> 492 ;
493 [label="gini = 0.1\nsamples = 11\nvalue = [1, 15]"] ;
491 -> 493 ;
494 [label="PCA 291 <= -0.0\ngini = 0.4\nsamples = 101\nvalue = [104, 40]"] ;
486 -> 494 ;
495 [label="PCA 452 <= -0.0\ngini = 0.5\nsamples = 44\nvalue = [27, 30]"] ;
494 -> 495 ;
496 [label="gini = 0.3\nsamples = 24\nvalue = [5, 24]"] ;
495 -> 496 ;
497 [label="gini = 0.3\nsamples = 20\nvalue = [22, 6]"] ;
495 -> 497 ;
498 [label="PCA 11 <= 0.1\ngini = 0.2\nsamples = 57\nvalue = [77, 10]"] ;
494 -> 498 ;
499 [label="gini = 0.1\nsamples = 49\nvalue = [74, 2]"] ;
498 -> 499 ;
500 [label="gini = 0.4\nsamples = 8\nvalue = [3, 8]"] ;
498 -> 500 ;
501 [label="PCA 330 <= 0.0\ngini = 0.2\nsamples = 34\nvalue = [45, 5]"] ;
485 -> 501 ;
502 [label="gini = 0.0\nsamples = 26\nvalue = [41, 0]"] ;
501 -> 502 ;
503 [label="gini = 0.5\nsamples = 8\nvalue = [4, 5]"] ;
501 -> 503 ;
504 [label="PCA 11 <= -0.1\ngini = 0.2\nsamples = 120\nvalue = [173, 20]"] ;
464 -> 504 ;
505 [label="PCA 188 <= -0.0\ngini = 0.4\nsamples = 23\nvalue = [22, 10]"] ;
504 -> 505 ;
506 [label="gini = 0.0\nsamples = 13\nvalue = [18, 0]"] ;
505 -> 506 ;
507 [label="gini = 0.4\nsamples = 10\nvalue = [4, 10]"] ;
505 -> 507 ;
508 [label="PCA 434 <= 0.0\ngini = 0.1\nsamples = 97\nvalue = [151, 10]"] ;
504 -> 508 ;
509 [label="gini = 0.0\nsamples = 58\nvalue = [103, 0]"] ;
508 -> 509 ;
510 [label="PCA 8 <= 0.3\ngini = 0.3\nsamples = 39\nvalue = [48, 10]"] ;
508 -> 510 ;
511 [label="PCA 342 <= -0.0\ngini = 0.1\nsamples = 26\nvalue = [37, 1]"] ;
510 -> 511 ;
512 [label="gini = 0.2\nsamples = 8\nvalue = [9, 1]"] ;
511 -> 512 ;
513 [label="gini = 0.0\nsamples = 18\nvalue = [28, 0]"] ;
511 -> 513 ;
514 [label="gini = 0.5\nsamples = 13\nvalue = [11, 9]"] ;
510 -> 514 ;
}