digraph Tree {
node [shape=box, style="rounded", color="black", fontname="helvetica"] ;
edge [fontname="helvetica"] ;
0 [label="Mass <= 23014.4\ngini = 0.5\nsamples = 32648\nvalue = [26121, 25502]"] ;
1 [label="PCA 1 <= -1.7\ngini = 0.3\nsamples = 9095\nvalue = [11885, 2470]"] ;
0 -> 1 [labeldistance=2.5, labelangle=45, headlabel="True"] ;
2 [label="PCA 9 <= -0.1\ngini = 0.1\nsamples = 2519\nvalue = [3735, 206]"] ;
1 -> 2 ;
3 [label="gini = 0.2\nsamples = 1202\nvalue = [1711, 183]"] ;
2 -> 3 ;
4 [label="gini = 0.0\nsamples = 1317\nvalue = [2024, 23]"] ;
2 -> 4 ;
5 [label="PCA 47 <= -0.4\ngini = 0.3\nsamples = 6576\nvalue = [8150, 2264]"] ;
1 -> 5 ;
6 [label="gini = 0.4\nsamples = 83\nvalue = [47, 93]"] ;
5 -> 6 ;
7 [label="gini = 0.3\nsamples = 6493\nvalue = [8103, 2171]"] ;
5 -> 7 ;
8 [label="Emb magnitude <= 13.2\ngini = 0.5\nsamples = 23553\nvalue = [14236, 23032]"] ;
0 -> 8 [labeldistance=2.5, labelangle=-45, headlabel="False"] ;
9 [label="PCA 12 <= 0.8\ngini = 0.4\nsamples = 18298\nvalue = [7991, 20971]"] ;
8 -> 9 ;
10 [label="gini = 0.4\nsamples = 18197\nvalue = [7882, 20925]"] ;
9 -> 10 ;
11 [label="gini = 0.4\nsamples = 101\nvalue = [109, 46]"] ;
9 -> 11 ;
12 [label="Emb magnitude <= 13.4\ngini = 0.4\nsamples = 5255\nvalue = [6245, 2061]"] ;
8 -> 12 ;
13 [label="gini = 0.5\nsamples = 1313\nvalue = [1166, 898]"] ;
12 -> 13 ;
14 [label="gini = 0.3\nsamples = 3942\nvalue = [5079, 1163]"] ;
12 -> 14 ;
}